digraph Tree {
node [shape=box] ;
0 [label="X[0] <= 1370.919\ngini = 0.611\nsamples = 1735\nvalue = [850, 611, 274]"] ;
1 [label="X[0] <= 199.0\ngini = 0.526\nsamples = 1212\nvalue = [607, 572, 33]"] ;
0 -> 1 [labeldistance=2.5, labelangle=45, headlabel="True"] ;
2 [label="gini = 0.0\nsamples = 51\nvalue = [51, 0, 0]"] ;
1 -> 2 ;
3 [label="X[0] <= 1183.835\ngini = 0.527\nsamples = 1161\nvalue = [556, 572, 33]"] ;
1 -> 3 ;
4 [label="X[0] <= 656.6\ngini = 0.526\nsamples = 1127\nvalue = [551, 546, 30]"] ;
3 -> 4 ;
5 [label="X[0] <= 538.263\ngini = 0.519\nsamples = 893\nvalue = [456, 419, 18]"] ;
4 -> 5 ;
6 [label="X[0] <= 529.983\ngini = 0.522\nsamples = 670\nvalue = [325, 330, 15]"] ;
5 -> 6 ;
7 [label="X[0] <= 523.764\ngini = 0.522\nsamples = 663\nvalue = [324, 324, 15]"] ;
6 -> 7 ;
8 [label="X[0] <= 499.995\ngini = 0.516\nsamples = 651\nvalue = [320, 320, 11]"] ;
7 -> 8 ;
9 [label="X[0] <= 236.252\ngini = 0.517\nsamples = 636\nvalue = [309, 316, 11]"] ;
8 -> 9 ;
10 [label="X[0] <= 235.94\ngini = 0.489\nsamples = 110\nvalue = [63, 47, 0]"] ;
9 -> 10 ;
11 [label="X[0] <= 235.738\ngini = 0.493\nsamples = 107\nvalue = [60, 47, 0]"] ;
10 -> 11 ;
12 [label="X[0] <= 234.793\ngini = 0.49\nsamples = 105\nvalue = [60, 45, 0]"] ;
11 -> 12 ;
13 [label="X[0] <= 234.342\ngini = 0.495\nsamples = 96\nvalue = [53, 43, 0]"] ;
12 -> 13 ;
14 [label="X[0] <= 234.02\ngini = 0.49\nsamples = 93\nvalue = [53, 40, 0]"] ;
13 -> 14 ;
15 [label="X[0] <= 232.39\ngini = 0.494\nsamples = 90\nvalue = [50, 40, 0]"] ;
14 -> 15 ;
16 [label="X[0] <= 231.214\ngini = 0.484\nsamples = 78\nvalue = [46, 32, 0]"] ;
15 -> 16 ;
17 [label="X[0] <= 230.955\ngini = 0.493\nsamples = 70\nvalue = [39, 31, 0]"] ;
16 -> 17 ;
18 [label="X[0] <= 211.426\ngini = 0.489\nsamples = 68\nvalue = [39, 29, 0]"] ;
17 -> 18 ;
19 [label="X[0] <= 206.116\ngini = 0.444\nsamples = 6\nvalue = [2, 4, 0]"] ;
18 -> 19 ;
20 [label="X[0] <= 202.197\ngini = 0.444\nsamples = 3\nvalue = [2, 1, 0]"] ;
19 -> 20 ;
21 [label="gini = 0.0\nsamples = 1\nvalue = [0, 1, 0]"] ;
20 -> 21 ;
22 [label="gini = 0.0\nsamples = 2\nvalue = [2, 0, 0]"] ;
20 -> 22 ;
23 [label="gini = 0.0\nsamples = 3\nvalue = [0, 3, 0]"] ;
19 -> 23 ;
24 [label="X[0] <= 218.225\ngini = 0.481\nsamples = 62\nvalue = [37, 25, 0]"] ;
18 -> 24 ;
25 [label="gini = 0.0\nsamples = 5\nvalue = [5, 0, 0]"] ;
24 -> 25 ;
26 [label="X[0] <= 220.595\ngini = 0.492\nsamples = 57\nvalue = [32, 25, 0]"] ;
24 -> 26 ;
27 [label="X[0] <= 218.729\ngini = 0.375\nsamples = 4\nvalue = [1, 3, 0]"] ;
26 -> 27 ;
28 [label="X[0] <= 218.445\ngini = 0.5\nsamples = 2\nvalue = [1, 1, 0]"] ;
27 -> 28 ;
29 [label="gini = 0.0\nsamples = 1\nvalue = [0, 1, 0]"] ;
28 -> 29 ;
30 [label="gini = 0.0\nsamples = 1\nvalue = [1, 0, 0]"] ;
28 -> 30 ;
31 [label="gini = 0.0\nsamples = 2\nvalue = [0, 2, 0]"] ;
27 -> 31 ;
32 [label="X[0] <= 223.813\ngini = 0.486\nsamples = 53\nvalue = [31, 22, 0]"] ;
26 -> 32 ;
33 [label="gini = 0.0\nsamples = 5\nvalue = [5, 0, 0]"] ;
32 -> 33 ;
34 [label="X[0] <= 229.07\ngini = 0.497\nsamples = 48\nvalue = [26, 22, 0]"] ;
32 -> 34 ;
35 [label="X[0] <= 228.175\ngini = 0.5\nsamples = 35\nvalue = [17, 18, 0]"] ;
34 -> 35 ;
36 [label="X[0] <= 225.931\ngini = 0.48\nsamples = 25\nvalue = [15, 10, 0]"] ;
35 -> 36 ;
37 [label="X[0] <= 224.514\ngini = 0.469\nsamples = 8\nvalue = [3, 5, 0]"] ;
36 -> 37 ;
38 [label="X[0] <= 224.111\ngini = 0.444\nsamples = 3\nvalue = [2, 1, 0]"] ;
37 -> 38 ;
39 [label="gini = 0.0\nsamples = 1\nvalue = [0, 1, 0]"] ;
38 -> 39 ;
40 [label="gini = 0.0\nsamples = 2\nvalue = [2, 0, 0]"] ;
38 -> 40 ;
41 [label="X[0] <= 225.336\ngini = 0.32\nsamples = 5\nvalue = [1, 4, 0]"] ;
37 -> 41 ;
42 [label="gini = 0.0\nsamples = 3\nvalue = [0, 3, 0]"] ;
41 -> 42 ;
43 [label="X[0] <= 225.602\ngini = 0.5\nsamples = 2\nvalue = [1, 1, 0]"] ;
41 -> 43 ;
44 [label="gini = 0.0\nsamples = 1\nvalue = [1, 0, 0]"] ;
43 -> 44 ;
45 [label="gini = 0.0\nsamples = 1\nvalue = [0, 1, 0]"] ;
43 -> 45 ;
46 [label="X[0] <= 226.368\ngini = 0.415\nsamples = 17\nvalue = [12, 5, 0]"] ;
36 -> 46 ;
47 [label="gini = 0.0\nsamples = 5\nvalue = [5, 0, 0]"] ;
46 -> 47 ;
48 [label="X[0] <= 226.885\ngini = 0.486\nsamples = 12\nvalue = [7, 5, 0]"] ;
46 -> 48 ;
49 [label="gini = 0.0\nsamples = 2\nvalue = [0, 2, 0]"] ;
48 -> 49 ;
50 [label="X[0] <= 228.011\ngini = 0.42\nsamples = 10\nvalue = [7, 3, 0]"] ;
48 -> 50 ;
51 [label="X[0] <= 226.99\ngini = 0.469\nsamples = 8\nvalue = [5, 3, 0]"] ;
50 -> 51 ;
52 [label="gini = 0.0\nsamples = 1\nvalue = [1, 0, 0]"] ;
51 -> 52 ;
53 [label="X[0] <= 227.233\ngini = 0.49\nsamples = 7\nvalue = [4, 3, 0]"] ;
51 -> 53 ;
54 [label="gini = 0.0\nsamples = 1\nvalue = [0, 1, 0]"] ;
53 -> 54 ;
55 [label="X[0] <= 227.673\ngini = 0.444\nsamples = 6\nvalue = [4, 2, 0]"] ;
53 -> 55 ;
56 [label="gini = 0.0\nsamples = 2\nvalue = [2, 0, 0]"] ;
55 -> 56 ;
57 [label="X[0] <= 227.895\ngini = 0.5\nsamples = 4\nvalue = [2, 2, 0]"] ;
55 -> 57 ;
58 [label="gini = 0.0\nsamples = 1\nvalue = [0, 1, 0]"] ;
57 -> 58 ;
59 [label="X[0] <= 227.968\ngini = 0.444\nsamples = 3\nvalue = [2, 1, 0]"] ;
57 -> 59 ;
60 [label="gini = 0.0\nsamples = 1\nvalue = [1, 0, 0]"] ;
59 -> 60 ;
61 [label="gini = 0.5\nsamples = 2\nvalue = [1, 1, 0]"] ;
59 -> 61 ;
62 [label="gini = 0.0\nsamples = 2\nvalue = [2, 0, 0]"] ;
50 -> 62 ;
63 [label="X[0] <= 228.729\ngini = 0.32\nsamples = 10\nvalue = [2, 8, 0]"] ;
35 -> 63 ;
64 [label="gini = 0.0\nsamples = 5\nvalue = [0, 5, 0]"] ;
63 -> 64 ;
65 [label="X[0] <= 228.85\ngini = 0.48\nsamples = 5\nvalue = [2, 3, 0]"] ;
63 -> 65 ;
66 [label="gini = 0.0\nsamples = 2\nvalue = [2, 0, 0]"] ;
65 -> 66 ;
67 [label="gini = 0.0\nsamples = 3\nvalue = [0, 3, 0]"] ;
65 -> 67 ;
68 [label="X[0] <= 229.986\ngini = 0.426\nsamples = 13\nvalue = [9, 4, 0]"] ;
34 -> 68 ;
69 [label="gini = 0.0\nsamples = 5\nvalue = [5, 0, 0]"] ;
68 -> 69 ;
70 [label="X[0] <= 229.995\ngini = 0.5\nsamples = 8\nvalue = [4, 4, 0]"] ;
68 -> 70 ;
71 [label="gini = 0.0\nsamples = 1\nvalue = [0, 1, 0]"] ;
70 -> 71 ;
72 [label="X[0] <= 230.047\ngini = 0.49\nsamples = 7\nvalue = [4, 3, 0]"] ;
70 -> 72 ;
73 [label="gini = 0.0\nsamples = 2\nvalue = [2, 0, 0]"] ;
72 -> 73 ;
74 [label="X[0] <= 230.456\ngini = 0.48\nsamples = 5\nvalue = [2, 3, 0]"] ;
72 -> 74 ;
75 [label="gini = 0.0\nsamples = 2\nvalue = [0, 2, 0]"] ;
74 -> 75 ;
76 [label="X[0] <= 230.602\ngini = 0.444\nsamples = 3\nvalue = [2, 1, 0]"] ;
74 -> 76 ;
77 [label="gini = 0.0\nsamples = 1\nvalue = [1, 0, 0]"] ;
76 -> 77 ;
78 [label="X[0] <= 230.777\ngini = 0.5\nsamples = 2\nvalue = [1, 1, 0]"] ;
76 -> 78 ;
79 [label="gini = 0.0\nsamples = 1\nvalue = [0, 1, 0]"] ;
78 -> 79 ;
80 [label="gini = 0.0\nsamples = 1\nvalue = [1, 0, 0]"] ;
78 -> 80 ;
81 [label="gini = 0.0\nsamples = 2\nvalue = [0, 2, 0]"] ;
17 -> 81 ;
82 [label="X[0] <= 231.891\ngini = 0.219\nsamples = 8\nvalue = [7, 1, 0]"] ;
16 -> 82 ;
83 [label="gini = 0.0\nsamples = 4\nvalue = [4, 0, 0]"] ;
82 -> 83 ;
84 [label="X[0] <= 232.071\ngini = 0.375\nsamples = 4\nvalue = [3, 1, 0]"] ;
82 -> 84 ;
85 [label="gini = 0.0\nsamples = 1\nvalue = [0, 1, 0]"] ;
84 -> 85 ;
86 [label="gini = 0.0\nsamples = 3\nvalue = [3, 0, 0]"] ;
84 -> 86 ;
87 [label="X[0] <= 233.178\ngini = 0.444\nsamples = 12\nvalue = [4, 8, 0]"] ;
15 -> 87 ;
88 [label="gini = 0.0\nsamples = 5\nvalue = [0, 5, 0]"] ;
87 -> 88 ;
89 [label="X[0] <= 233.416\ngini = 0.49\nsamples = 7\nvalue = [4, 3, 0]"] ;
87 -> 89 ;
90 [label="gini = 0.0\nsamples = 2\nvalue = [2, 0, 0]"] ;
89 -> 90 ;
91 [label="X[0] <= 233.626\ngini = 0.48\nsamples = 5\nvalue = [2, 3, 0]"] ;
89 -> 91 ;
92 [label="gini = 0.0\nsamples = 1\nvalue = [0, 1, 0]"] ;
91 -> 92 ;
93 [label="X[0] <= 233.892\ngini = 0.5\nsamples = 4\nvalue = [2, 2, 0]"] ;
91 -> 93 ;
94 [label="gini = 0.0\nsamples = 1\nvalue = [1, 0, 0]"] ;
93 -> 94 ;
95 [label="X[0] <= 233.998\ngini = 0.444\nsamples = 3\nvalue = [1, 2, 0]"] ;
93 -> 95 ;
96 [label="gini = 0.0\nsamples = 1\nvalue = [0, 1, 0]"] ;
95 -> 96 ;
97 [label="X[0] <= 234.005\ngini = 0.5\nsamples = 2\nvalue = [1, 1, 0]"] ;
95 -> 97 ;
98 [label="gini = 0.0\nsamples = 1\nvalue = [1, 0, 0]"] ;
97 -> 98 ;
99 [label="gini = 0.0\nsamples = 1\nvalue = [0, 1, 0]"] ;
97 -> 99 ;
100 [label="gini = 0.0\nsamples = 3\nvalue = [3, 0, 0]"] ;
14 -> 100 ;
101 [label="gini = 0.0\nsamples = 3\nvalue = [0, 3, 0]"] ;
13 -> 101 ;
102 [label="X[0] <= 235.034\ngini = 0.346\nsamples = 9\nvalue = [7, 2, 0]"] ;
12 -> 102 ;
103 [label="gini = 0.0\nsamples = 3\nvalue = [3, 0, 0]"] ;
102 -> 103 ;
104 [label="X[0] <= 235.083\ngini = 0.444\nsamples = 6\nvalue = [4, 2, 0]"] ;
102 -> 104 ;
105 [label="gini = 0.0\nsamples = 1\nvalue = [0, 1, 0]"] ;
104 -> 105 ;
106 [label="X[0] <= 235.513\ngini = 0.32\nsamples = 5\nvalue = [4, 1, 0]"] ;
104 -> 106 ;
107 [label="gini = 0.0\nsamples = 2\nvalue = [2, 0, 0]"] ;
106 -> 107 ;
108 [label="X[0] <= 235.532\ngini = 0.444\nsamples = 3\nvalue = [2, 1, 0]"] ;
106 -> 108 ;
109 [label="gini = 0.0\nsamples = 1\nvalue = [0, 1, 0]"] ;
108 -> 109 ;
110 [label="gini = 0.0\nsamples = 2\nvalue = [2, 0, 0]"] ;
108 -> 110 ;
111 [label="gini = 0.0\nsamples = 2\nvalue = [0, 2, 0]"] ;
11 -> 111 ;
112 [label="gini = 0.0\nsamples = 3\nvalue = [3, 0, 0]"] ;
10 -> 112 ;
113 [label="X[0] <= 237.043\ngini = 0.519\nsamples = 526\nvalue = [246, 269, 11]"] ;
9 -> 113 ;
114 [label="gini = 0.0\nsamples = 8\nvalue = [0, 8, 0]"] ;
113 -> 114 ;
115 [label="X[0] <= 495.261\ngini = 0.52\nsamples = 518\nvalue = [246, 261, 11]"] ;
113 -> 115 ;
116 [label="X[0] <= 258.033\ngini = 0.52\nsamples = 515\nvalue = [246, 258, 11]"] ;
115 -> 116 ;
117 [label="X[0] <= 254.709\ngini = 0.483\nsamples = 86\nvalue = [35, 51, 0]"] ;
116 -> 117 ;
118 [label="X[0] <= 237.643\ngini = 0.489\nsamples = 82\nvalue = [35, 47, 0]"] ;
117 -> 118 ;
119 [label="X[0] <= 237.508\ngini = 0.375\nsamples = 4\nvalue = [3, 1, 0]"] ;
118 -> 119 ;
120 [label="X[0] <= 237.271\ngini = 0.5\nsamples = 2\nvalue = [1, 1, 0]"] ;
119 -> 120 ;
121 [label="gini = 0.0\nsamples = 1\nvalue = [1, 0, 0]"] ;
120 -> 121 ;
122 [label="gini = 0.0\nsamples = 1\nvalue = [0, 1, 0]"] ;
120 -> 122 ;
123 [label="gini = 0.0\nsamples = 2\nvalue = [2, 0, 0]"] ;
119 -> 123 ;
124 [label="X[0] <= 240.749\ngini = 0.484\nsamples = 78\nvalue = [32, 46, 0]"] ;
118 -> 124 ;
125 [label="X[0] <= 240.152\ngini = 0.417\nsamples = 27\nvalue = [8, 19, 0]"] ;
124 -> 125 ;
126 [label="X[0] <= 240.001\ngini = 0.48\nsamples = 20\nvalue = [8, 12, 0]"] ;
125 -> 126 ;
127 [label="X[0] <= 239.985\ngini = 0.415\nsamples = 17\nvalue = [5, 12, 0]"] ;
126 -> 127 ;
128 [label="X[0] <= 239.966\ngini = 0.444\nsamples = 15\nvalue = [5, 10, 0]"] ;
127 -> 128 ;
129 [label="X[0] <= 238.763\ngini = 0.408\nsamples = 14\nvalue = [4, 10, 0]"] ;
128 -> 129 ;
130 [label="X[0] <= 237.932\ngini = 0.278\nsamples = 6\nvalue = [1, 5, 0]"] ;
129 -> 130 ;
131 [label="X[0] <= 237.776\ngini = 0.5\nsamples = 2\nvalue = [1, 1, 0]"] ;
130 -> 131 ;
132 [label="gini = 0.0\nsamples = 1\nvalue = [0, 1, 0]"] ;
131 -> 132 ;
133 [label="gini = 0.0\nsamples = 1\nvalue = [1, 0, 0]"] ;
131 -> 133 ;
134 [label="gini = 0.0\nsamples = 4\nvalue = [0, 4, 0]"] ;
130 -> 134 ;
135 [label="X[0] <= 239.031\ngini = 0.469\nsamples = 8\nvalue = [3, 5, 0]"] ;
129 -> 135 ;
136 [label="gini = 0.0\nsamples = 1\nvalue = [1, 0, 0]"] ;
135 -> 136 ;
137 [label="X[0] <= 239.274\ngini = 0.408\nsamples = 7\nvalue = [2, 5, 0]"] ;
135 -> 137 ;
138 [label="gini = 0.0\nsamples = 2\nvalue = [0, 2, 0]"] ;
137 -> 138 ;
139 [label="X[0] <= 239.527\ngini = 0.48\nsamples = 5\nvalue = [2, 3, 0]"] ;
137 -> 139 ;
140 [label="gini = 0.0\nsamples = 1\nvalue = [1, 0, 0]"] ;
139 -> 140 ;
141 [label="X[0] <= 239.737\ngini = 0.375\nsamples = 4\nvalue = [1, 3, 0]"] ;
139 -> 141 ;
142 [label="gini = 0.0\nsamples = 2\nvalue = [0, 2, 0]"] ;
141 -> 142 ;
143 [label="X[0] <= 239.853\ngini = 0.5\nsamples = 2\nvalue = [1, 1, 0]"] ;
141 -> 143 ;
144 [label="gini = 0.0\nsamples = 1\nvalue = [1, 0, 0]"] ;
143 -> 144 ;
145 [label="gini = 0.0\nsamples = 1\nvalue = [0, 1, 0]"] ;
143 -> 145 ;
146 [label="gini = 0.0\nsamples = 1\nvalue = [1, 0, 0]"] ;
128 -> 146 ;
147 [label="gini = 0.0\nsamples = 2\nvalue = [0, 2, 0]"] ;
127 -> 147 ;
148 [label="gini = 0.0\nsamples = 3\nvalue = [3, 0, 0]"] ;
126 -> 148 ;
149 [label="gini = 0.0\nsamples = 7\nvalue = [0, 7, 0]"] ;
125 -> 149 ;
150 [label="X[0] <= 242.105\ngini = 0.498\nsamples = 51\nvalue = [24, 27, 0]"] ;
124 -> 150 ;
151 [label="gini = 0.0\nsamples = 2\nvalue = [2, 0, 0]"] ;
150 -> 151 ;
152 [label="X[0] <= 249.277\ngini = 0.495\nsamples = 49\nvalue = [22, 27, 0]"] ;
150 -> 152 ;
153 [label="X[0] <= 248.489\ngini = 0.5\nsamples = 33\nvalue = [17, 16, 0]"] ;
152 -> 153 ;
154 [label="X[0] <= 242.506\ngini = 0.498\nsamples = 30\nvalue = [14, 16, 0]"] ;
153 -> 154 ;
155 [label="gini = 0.0\nsamples = 2\nvalue = [0, 2, 0]"] ;
154 -> 155 ;
156 [label="X[0] <= 242.9\ngini = 0.5\nsamples = 28\nvalue = [14, 14, 0]"] ;
154 -> 156 ;
157 [label="X[0] <= 242.67\ngini = 0.375\nsamples = 4\nvalue = [3, 1, 0]"] ;
156 -> 157 ;
158 [label="X[0] <= 242.54\ngini = 0.5\nsamples = 2\nvalue = [1, 1, 0]"] ;
157 -> 158 ;
159 [label="gini = 0.0\nsamples = 1\nvalue = [1, 0, 0]"] ;
158 -> 159 ;
160 [label="gini = 0.0\nsamples = 1\nvalue = [0, 1, 0]"] ;
158 -> 160 ;
161 [label="gini = 0.0\nsamples = 2\nvalue = [2, 0, 0]"] ;
157 -> 161 ;
162 [label="X[0] <= 243.598\ngini = 0.497\nsamples = 24\nvalue = [11, 13, 0]"] ;
156 -> 162 ;
163 [label="gini = 0.0\nsamples = 3\nvalue = [0, 3, 0]"] ;
162 -> 163 ;
164 [label="X[0] <= 244.143\ngini = 0.499\nsamples = 21\nvalue = [11, 10, 0]"] ;
162 -> 164 ;
165 [label="gini = 0.0\nsamples = 2\nvalue = [2, 0, 0]"] ;
164 -> 165 ;
166 [label="X[0] <= 244.646\ngini = 0.499\nsamples = 19\nvalue = [9, 10, 0]"] ;
164 -> 166 ;
167 [label="gini = 0.0\nsamples = 2\nvalue = [0, 2, 0]"] ;
166 -> 167 ;
168 [label="X[0] <= 245.6\ngini = 0.498\nsamples = 17\nvalue = [9, 8, 0]"] ;
166 -> 168 ;
169 [label="gini = 0.0\nsamples = 3\nvalue = [3, 0, 0]"] ;
168 -> 169 ;
170 [label="X[0] <= 246.012\ngini = 0.49\nsamples = 14\nvalue = [6, 8, 0]"] ;
168 -> 170 ;
171 [label="gini = 0.0\nsamples = 3\nvalue = [0, 3, 0]"] ;
170 -> 171 ;
172 [label="X[0] <= 248.236\ngini = 0.496\nsamples = 11\nvalue = [6, 5, 0]"] ;
170 -> 172 ;
173 [label="X[0] <= 247.749\ngini = 0.48\nsamples = 10\nvalue = [6, 4, 0]"] ;
172 -> 173 ;
174 [label="X[0] <= 246.357\ngini = 0.5\nsamples = 8\nvalue = [4, 4, 0]"] ;
173 -> 174 ;
175 [label="gini = 0.0\nsamples = 1\nvalue = [1, 0, 0]"] ;
174 -> 175 ;
176 [label="X[0] <= 246.865\ngini = 0.49\nsamples = 7\nvalue = [3, 4, 0]"] ;
174 -> 176 ;
177 [label="gini = 0.0\nsamples = 1\nvalue = [0, 1, 0]"] ;
176 -> 177 ;
178 [label="X[0] <= 247.045\ngini = 0.5\nsamples = 6\nvalue = [3, 3, 0]"] ;
176 -> 178 ;
179 [label="gini = 0.0\nsamples = 1\nvalue = [1, 0, 0]"] ;
178 -> 179 ;
180 [label="X[0] <= 247.171\ngini = 0.48\nsamples = 5\nvalue = [2, 3, 0]"] ;
178 -> 180 ;
181 [label="gini = 0.0\nsamples = 1\nvalue = [0, 1, 0]"] ;
180 -> 181 ;
182 [label="X[0] <= 247.364\ngini = 0.5\nsamples = 4\nvalue = [2, 2, 0]"] ;
180 -> 182 ;
183 [label="gini = 0.0\nsamples = 1\nvalue = [1, 0, 0]"] ;
182 -> 183 ;
184 [label="X[0] <= 247.513\ngini = 0.444\nsamples = 3\nvalue = [1, 2, 0]"] ;
182 -> 184 ;
185 [label="gini = 0.0\nsamples = 1\nvalue = [0, 1, 0]"] ;
184 -> 185 ;
186 [label="X[0] <= 247.64\ngini = 0.5\nsamples = 2\nvalue = [1, 1, 0]"] ;
184 -> 186 ;
187 [label="gini = 0.0\nsamples = 1\nvalue = [1, 0, 0]"] ;
186 -> 187 ;
188 [label="gini = 0.0\nsamples = 1\nvalue = [0, 1, 0]"] ;
186 -> 188 ;
189 [label="gini = 0.0\nsamples = 2\nvalue = [2, 0, 0]"] ;
173 -> 189 ;
190 [label="gini = 0.0\nsamples = 1\nvalue = [0, 1, 0]"] ;
172 -> 190 ;
191 [label="gini = 0.0\nsamples = 3\nvalue = [3, 0, 0]"] ;
153 -> 191 ;
192 [label="X[0] <= 252.179\ngini = 0.43\nsamples = 16\nvalue = [5, 11, 0]"] ;
152 -> 192 ;
193 [label="X[0] <= 250.544\ngini = 0.18\nsamples = 10\nvalue = [1, 9, 0]"] ;
192 -> 193 ;
194 [label="gini = 0.0\nsamples = 5\nvalue = [0, 5, 0]"] ;
193 -> 194 ;
195 [label="X[0] <= 250.715\ngini = 0.32\nsamples = 5\nvalue = [1, 4, 0]"] ;
193 -> 195 ;
196 [label="gini = 0.0\nsamples = 1\nvalue = [1, 0, 0]"] ;
195 -> 196 ;
197 [label="gini = 0.0\nsamples = 4\nvalue = [0, 4, 0]"] ;
195 -> 197 ;
198 [label="X[0] <= 253.876\ngini = 0.444\nsamples = 6\nvalue = [4, 2, 0]"] ;
192 -> 198 ;
199 [label="gini = 0.0\nsamples = 3\nvalue = [3, 0, 0]"] ;
198 -> 199 ;
200 [label="X[0] <= 254.395\ngini = 0.444\nsamples = 3\nvalue = [1, 2, 0]"] ;
198 -> 200 ;
201 [label="gini = 0.0\nsamples = 2\nvalue = [0, 2, 0]"] ;
200 -> 201 ;
202 [label="gini = 0.0\nsamples = 1\nvalue = [1, 0, 0]"] ;
200 -> 202 ;
203 [label="gini = 0.0\nsamples = 4\nvalue = [0, 4, 0]"] ;
117 -> 203 ;
204 [label="X[0] <= 386.747\ngini = 0.525\nsamples = 429\nvalue = [211, 207, 11]"] ;
116 -> 204 ;
205 [label="X[0] <= 370.697\ngini = 0.5\nsamples = 211\nvalue = [115, 95, 1]"] ;
204 -> 205 ;
206 [label="X[0] <= 267.74\ngini = 0.505\nsamples = 183\nvalue = [94, 88, 1]"] ;
205 -> 206 ;
207 [label="X[0] <= 265.21\ngini = 0.444\nsamples = 24\nvalue = [16, 8, 0]"] ;
206 -> 207 ;
208 [label="X[0] <= 260.485\ngini = 0.488\nsamples = 19\nvalue = [11, 8, 0]"] ;
207 -> 208 ;
209 [label="X[0] <= 259.007\ngini = 0.278\nsamples = 6\nvalue = [5, 1, 0]"] ;
208 -> 209 ;
210 [label="X[0] <= 258.897\ngini = 0.444\nsamples = 3\nvalue = [2, 1, 0]"] ;
209 -> 210 ;
211 [label="gini = 0.0\nsamples = 2\nvalue = [2, 0, 0]"] ;
210 -> 211 ;
212 [label="gini = 0.0\nsamples = 1\nvalue = [0, 1, 0]"] ;
210 -> 212 ;
213 [label="gini = 0.0\nsamples = 3\nvalue = [3, 0, 0]"] ;
209 -> 213 ;
214 [label="X[0] <= 261.25\ngini = 0.497\nsamples = 13\nvalue = [6, 7, 0]"] ;
208 -> 214 ;
215 [label="gini = 0.0\nsamples = 2\nvalue = [0, 2, 0]"] ;
214 -> 215 ;
216 [label="X[0] <= 264.2\ngini = 0.496\nsamples = 11\nvalue = [6, 5, 0]"] ;
214 -> 216 ;
217 [label="X[0] <= 261.807\ngini = 0.408\nsamples = 7\nvalue = [5, 2, 0]"] ;
216 -> 217 ;
218 [label="gini = 0.0\nsamples = 2\nvalue = [2, 0, 0]"] ;
217 -> 218 ;
219 [label="X[0] <= 263.462\ngini = 0.48\nsamples = 5\nvalue = [3, 2, 0]"] ;
217 -> 219 ;
220 [label="X[0] <= 262.215\ngini = 0.444\nsamples = 3\nvalue = [1, 2, 0]"] ;
219 -> 220 ;
221 [label="gini = 0.0\nsamples = 1\nvalue = [0, 1, 0]"] ;
220 -> 221 ;
222 [label="X[0] <= 262.851\ngini = 0.5\nsamples = 2\nvalue = [1, 1, 0]"] ;
220 -> 222 ;
223 [label="gini = 0.0\nsamples = 1\nvalue = [1, 0, 0]"] ;
222 -> 223 ;
224 [label="gini = 0.0\nsamples = 1\nvalue = [0, 1, 0]"] ;
222 -> 224 ;
225 [label="gini = 0.0\nsamples = 2\nvalue = [2, 0, 0]"] ;
219 -> 225 ;
226 [label="X[0] <= 265.05\ngini = 0.375\nsamples = 4\nvalue = [1, 3, 0]"] ;
216 -> 226 ;
227 [label="gini = 0.0\nsamples = 2\nvalue = [0, 2, 0]"] ;
226 -> 227 ;
228 [label="X[0] <= 265.2\ngini = 0.5\nsamples = 2\nvalue = [1, 1, 0]"] ;
226 -> 228 ;
229 [label="gini = 0.0\nsamples = 1\nvalue = [1, 0, 0]"] ;
228 -> 229 ;
230 [label="gini = 0.0\nsamples = 1\nvalue = [0, 1, 0]"] ;
228 -> 230 ;
231 [label="gini = 0.0\nsamples = 5\nvalue = [5, 0, 0]"] ;
207 -> 231 ;
232 [label="X[0] <= 268.643\ngini = 0.506\nsamples = 159\nvalue = [78, 80, 1]"] ;
206 -> 232 ;
233 [label="gini = 0.0\nsamples = 2\nvalue = [0, 2, 0]"] ;
232 -> 233 ;
234 [label="X[0] <= 312.602\ngini = 0.506\nsamples = 157\nvalue = [78, 78, 1]"] ;
232 -> 234 ;
235 [label="X[0] <= 285.377\ngini = 0.495\nsamples = 69\nvalue = [31, 38, 0]"] ;
234 -> 235 ;
236 [label="X[0] <= 280.64\ngini = 0.492\nsamples = 39\nvalue = [22, 17, 0]"] ;
235 -> 236 ;
237 [label="X[0] <= 279.373\ngini = 0.499\nsamples = 29\nvalue = [14, 15, 0]"] ;
236 -> 237 ;
238 [label="X[0] <= 272.163\ngini = 0.497\nsamples = 26\nvalue = [14, 12, 0]"] ;
237 -> 238 ;
239 [label="X[0] <= 269.826\ngini = 0.48\nsamples = 15\nvalue = [6, 9, 0]"] ;
238 -> 239 ;
240 [label="X[0] <= 269.065\ngini = 0.469\nsamples = 8\nvalue = [5, 3, 0]"] ;
239 -> 240 ;
241 [label="X[0] <= 268.963\ngini = 0.444\nsamples = 3\nvalue = [1, 2, 0]"] ;
240 -> 241 ;
242 [label="gini = 0.0\nsamples = 1\nvalue = [1, 0, 0]"] ;
241 -> 242 ;
243 [label="gini = 0.0\nsamples = 2\nvalue = [0, 2, 0]"] ;
241 -> 243 ;
244 [label="X[0] <= 269.375\ngini = 0.32\nsamples = 5\nvalue = [4, 1, 0]"] ;
240 -> 244 ;
245 [label="gini = 0.0\nsamples = 3\nvalue = [3, 0, 0]"] ;
244 -> 245 ;
246 [label="X[0] <= 269.537\ngini = 0.5\nsamples = 2\nvalue = [1, 1, 0]"] ;
244 -> 246 ;
247 [label="gini = 0.0\nsamples = 1\nvalue = [0, 1, 0]"] ;
246 -> 247 ;
248 [label="gini = 0.0\nsamples = 1\nvalue = [1, 0, 0]"] ;
246 -> 248 ;
249 [label="X[0] <= 270.128\ngini = 0.245\nsamples = 7\nvalue = [1, 6, 0]"] ;
239 -> 249 ;
250 [label="gini = 0.0\nsamples = 4\nvalue = [0, 4, 0]"] ;
249 -> 250 ;
251 [label="X[0] <= 270.341\ngini = 0.444\nsamples = 3\nvalue = [1, 2, 0]"] ;
249 -> 251 ;
252 [label="gini = 0.0\nsamples = 1\nvalue = [1, 0, 0]"] ;
251 -> 252 ;
253 [label="gini = 0.0\nsamples = 2\nvalue = [0, 2, 0]"] ;
251 -> 253 ;
254 [label="X[0] <= 277.665\ngini = 0.397\nsamples = 11\nvalue = [8, 3, 0]"] ;
238 -> 254 ;
255 [label="gini = 0.0\nsamples = 6\nvalue = [6, 0, 0]"] ;
254 -> 255 ;
256 [label="X[0] <= 278.534\ngini = 0.48\nsamples = 5\nvalue = [2, 3, 0]"] ;
254 -> 256 ;
257 [label="gini = 0.0\nsamples = 3\nvalue = [0, 3, 0]"] ;
256 -> 257 ;
258 [label="gini = 0.0\nsamples = 2\nvalue = [2, 0, 0]"] ;
256 -> 258 ;
259 [label="gini = 0.0\nsamples = 3\nvalue = [0, 3, 0]"] ;
237 -> 259 ;
260 [label="X[0] <= 284.457\ngini = 0.32\nsamples = 10\nvalue = [8, 2, 0]"] ;
236 -> 260 ;
261 [label="gini = 0.0\nsamples = 6\nvalue = [6, 0, 0]"] ;
260 -> 261 ;
262 [label="X[0] <= 284.987\ngini = 0.5\nsamples = 4\nvalue = [2, 2, 0]"] ;
260 -> 262 ;
263 [label="gini = 0.0\nsamples = 2\nvalue = [0, 2, 0]"] ;
262 -> 263 ;
264 [label="gini = 0.0\nsamples = 2\nvalue = [2, 0, 0]"] ;
262 -> 264 ;
265 [label="X[0] <= 287.392\ngini = 0.42\nsamples = 30\nvalue = [9, 21, 0]"] ;
235 -> 265 ;
266 [label="gini = 0.0\nsamples = 5\nvalue = [0, 5, 0]"] ;
265 -> 266 ;
267 [label="X[0] <= 288.797\ngini = 0.461\nsamples = 25\nvalue = [9, 16, 0]"] ;
265 -> 267 ;
268 [label="X[0] <= 287.767\ngini = 0.444\nsamples = 6\nvalue = [4, 2, 0]"] ;
267 -> 268 ;
269 [label="gini = 0.0\nsamples = 1\nvalue = [1, 0, 0]"] ;
268 -> 269 ;
270 [label="X[0] <= 288.734\ngini = 0.48\nsamples = 5\nvalue = [3, 2, 0]"] ;
268 -> 270 ;
271 [label="X[0] <= 288.629\ngini = 0.5\nsamples = 4\nvalue = [2, 2, 0]"] ;
270 -> 271 ;
272 [label="X[0] <= 288.281\ngini = 0.444\nsamples = 3\nvalue = [2, 1, 0]"] ;
271 -> 272 ;
273 [label="gini = 0.5\nsamples = 2\nvalue = [1, 1, 0]"] ;
272 -> 273 ;
274 [label="gini = 0.0\nsamples = 1\nvalue = [1, 0, 0]"] ;
272 -> 274 ;
275 [label="gini = 0.0\nsamples = 1\nvalue = [0, 1, 0]"] ;
271 -> 275 ;
276 [label="gini = 0.0\nsamples = 1\nvalue = [1, 0, 0]"] ;
270 -> 276 ;
277 [label="X[0] <= 293.755\ngini = 0.388\nsamples = 19\nvalue = [5, 14, 0]"] ;
267 -> 277 ;
278 [label="X[0] <= 293.44\ngini = 0.463\nsamples = 11\nvalue = [4, 7, 0]"] ;
277 -> 278 ;
279 [label="X[0] <= 289.724\ngini = 0.42\nsamples = 10\nvalue = [3, 7, 0]"] ;
278 -> 279 ;
280 [label="gini = 0.0\nsamples = 2\nvalue = [0, 2, 0]"] ;
279 -> 280 ;
281 [label="X[0] <= 290.144\ngini = 0.469\nsamples = 8\nvalue = [3, 5, 0]"] ;
279 -> 281 ;
282 [label="X[0] <= 290.018\ngini = 0.444\nsamples = 3\nvalue = [2, 1, 0]"] ;
281 -> 282 ;
283 [label="gini = 0.5\nsamples = 2\nvalue = [1, 1, 0]"] ;
282 -> 283 ;
284 [label="gini = 0.0\nsamples = 1\nvalue = [1, 0, 0]"] ;
282 -> 284 ;
285 [label="X[0] <= 292.381\ngini = 0.32\nsamples = 5\nvalue = [1, 4, 0]"] ;
281 -> 285 ;
286 [label="gini = 0.0\nsamples = 3\nvalue = [0, 3, 0]"] ;
285 -> 286 ;
287 [label="X[0] <= 293.218\ngini = 0.5\nsamples = 2\nvalue = [1, 1, 0]"] ;
285 -> 287 ;
288 [label="gini = 0.0\nsamples = 1\nvalue = [1, 0, 0]"] ;
287 -> 288 ;
289 [label="gini = 0.0\nsamples = 1\nvalue = [0, 1, 0]"] ;
287 -> 289 ;
290 [label="gini = 0.0\nsamples = 1\nvalue = [1, 0, 0]"] ;
278 -> 290 ;
291 [label="X[0] <= 303.104\ngini = 0.219\nsamples = 8\nvalue = [1, 7, 0]"] ;
277 -> 291 ;
292 [label="gini = 0.0\nsamples = 5\nvalue = [0, 5, 0]"] ;
291 -> 292 ;
293 [label="X[0] <= 309.502\ngini = 0.444\nsamples = 3\nvalue = [1, 2, 0]"] ;
291 -> 293 ;
294 [label="gini = 0.0\nsamples = 1\nvalue = [1, 0, 0]"] ;
293 -> 294 ;
295 [label="gini = 0.0\nsamples = 2\nvalue = [0, 2, 0]"] ;
293 -> 295 ;
296 [label="X[0] <= 319.988\ngini = 0.508\nsamples = 88\nvalue = [47, 40, 1]"] ;
234 -> 296 ;
297 [label="X[0] <= 315.226\ngini = 0.165\nsamples = 11\nvalue = [10, 1, 0]"] ;
296 -> 297 ;
298 [label="gini = 0.0\nsamples = 5\nvalue = [5, 0, 0]"] ;
297 -> 298 ;
299 [label="X[0] <= 315.641\ngini = 0.278\nsamples = 6\nvalue = [5, 1, 0]"] ;
297 -> 299 ;
300 [label="gini = 0.0\nsamples = 1\nvalue = [0, 1, 0]"] ;
299 -> 300 ;
301 [label="gini = 0.0\nsamples = 5\nvalue = [5, 0, 0]"] ;
299 -> 301 ;
302 [label="X[0] <= 330.009\ngini = 0.512\nsamples = 77\nvalue = [37, 39, 1]"] ;
296 -> 302 ;
303 [label="X[0] <= 325.507\ngini = 0.515\nsamples = 20\nvalue = [7, 12, 1]"] ;
302 -> 303 ;
304 [label="X[0] <= 325.227\ngini = 0.561\nsamples = 14\nvalue = [7, 6, 1]"] ;
303 -> 304 ;
305 [label="X[0] <= 323.185\ngini = 0.568\nsamples = 13\nvalue = [6, 6, 1]"] ;
304 -> 305 ;
306 [label="X[0] <= 320.26\ngini = 0.568\nsamples = 9\nvalue = [5, 3, 1]"] ;
305 -> 306 ;
307 [label="X[0] <= 320.021\ngini = 0.444\nsamples = 6\nvalue = [4, 2, 0]"] ;
306 -> 307 ;
308 [label="gini = 0.48\nsamples = 5\nvalue = [3, 2, 0]"] ;
307 -> 308 ;
309 [label="gini = 0.0\nsamples = 1\nvalue = [1, 0, 0]"] ;
307 -> 309 ;
310 [label="X[0] <= 320.74\ngini = 0.667\nsamples = 3\nvalue = [1, 1, 1]"] ;
306 -> 310 ;
311 [label="gini = 0.0\nsamples = 1\nvalue = [0, 0, 1]"] ;
310 -> 311 ;
312 [label="X[0] <= 322.035\ngini = 0.5\nsamples = 2\nvalue = [1, 1, 0]"] ;
310 -> 312 ;
313 [label="gini = 0.0\nsamples = 1\nvalue = [0, 1, 0]"] ;
312 -> 313 ;
314 [label="gini = 0.0\nsamples = 1\nvalue = [1, 0, 0]"] ;
312 -> 314 ;
315 [label="X[0] <= 324.15\ngini = 0.375\nsamples = 4\nvalue = [1, 3, 0]"] ;
305 -> 315 ;
316 [label="gini = 0.0\nsamples = 1\nvalue = [0, 1, 0]"] ;
315 -> 316 ;
317 [label="X[0] <= 325.094\ngini = 0.444\nsamples = 3\nvalue = [1, 2, 0]"] ;
315 -> 317 ;
318 [label="gini = 0.5\nsamples = 2\nvalue = [1, 1, 0]"] ;
317 -> 318 ;
319 [label="gini = 0.0\nsamples = 1\nvalue = [0, 1, 0]"] ;
317 -> 319 ;
320 [label="gini = 0.0\nsamples = 1\nvalue = [1, 0, 0]"] ;
304 -> 320 ;
321 [label="gini = 0.0\nsamples = 6\nvalue = [0, 6, 0]"] ;
303 -> 321 ;
322 [label="X[0] <= 331.585\ngini = 0.499\nsamples = 57\nvalue = [30, 27, 0]"] ;
302 -> 322 ;
323 [label="gini = 0.0\nsamples = 3\nvalue = [3, 0, 0]"] ;
322 -> 323 ;
324 [label="X[0] <= 332.85\ngini = 0.5\nsamples = 54\nvalue = [27, 27, 0]"] ;
322 -> 324 ;
325 [label="gini = 0.0\nsamples = 2\nvalue = [0, 2, 0]"] ;
324 -> 325 ;
326 [label="X[0] <= 336.695\ngini = 0.499\nsamples = 52\nvalue = [27, 25, 0]"] ;
324 -> 326 ;
327 [label="gini = 0.0\nsamples = 3\nvalue = [3, 0, 0]"] ;
326 -> 327 ;
328 [label="X[0] <= 349.749\ngini = 0.5\nsamples = 49\nvalue = [24, 25, 0]"] ;
326 -> 328 ;
329 [label="X[0] <= 347.27\ngini = 0.444\nsamples = 15\nvalue = [5, 10, 0]"] ;
328 -> 329 ;
330 [label="X[0] <= 344.894\ngini = 0.5\nsamples = 10\nvalue = [5, 5, 0]"] ;
329 -> 330 ;
331 [label="X[0] <= 340.589\ngini = 0.469\nsamples = 8\nvalue = [3, 5, 0]"] ;
330 -> 331 ;
332 [label="X[0] <= 337.961\ngini = 0.48\nsamples = 5\nvalue = [3, 2, 0]"] ;
331 -> 332 ;
333 [label="gini = 0.0\nsamples = 1\nvalue = [0, 1, 0]"] ;
332 -> 333 ;
334 [label="X[0] <= 338.753\ngini = 0.375\nsamples = 4\nvalue = [3, 1, 0]"] ;
332 -> 334 ;
335 [label="gini = 0.0\nsamples = 2\nvalue = [2, 0, 0]"] ;
334 -> 335 ;
336 [label="X[0] <= 339.523\ngini = 0.5\nsamples = 2\nvalue = [1, 1, 0]"] ;
334 -> 336 ;
337 [label="gini = 0.0\nsamples = 1\nvalue = [0, 1, 0]"] ;
336 -> 337 ;
338 [label="gini = 0.0\nsamples = 1\nvalue = [1, 0, 0]"] ;
336 -> 338 ;
339 [label="gini = 0.0\nsamples = 3\nvalue = [0, 3, 0]"] ;
331 -> 339 ;
340 [label="gini = 0.0\nsamples = 2\nvalue = [2, 0, 0]"] ;
330 -> 340 ;
341 [label="gini = 0.0\nsamples = 5\nvalue = [0, 5, 0]"] ;
329 -> 341 ;
342 [label="X[0] <= 363.341\ngini = 0.493\nsamples = 34\nvalue = [19, 15, 0]"] ;
328 -> 342 ;
343 [label="X[0] <= 359.188\ngini = 0.444\nsamples = 21\nvalue = [14, 7, 0]"] ;
342 -> 343 ;
344 [label="X[0] <= 353.005\ngini = 0.5\nsamples = 10\nvalue = [5, 5, 0]"] ;
343 -> 344 ;
345 [label="X[0] <= 350.025\ngini = 0.408\nsamples = 7\nvalue = [5, 2, 0]"] ;
344 -> 345 ;
346 [label="gini = 0.0\nsamples = 2\nvalue = [2, 0, 0]"] ;
345 -> 346 ;
347 [label="X[0] <= 350.227\ngini = 0.48\nsamples = 5\nvalue = [3, 2, 0]"] ;
345 -> 347 ;
348 [label="gini = 0.0\nsamples = 1\nvalue = [0, 1, 0]"] ;
347 -> 348 ;
349 [label="X[0] <= 351.45\ngini = 0.375\nsamples = 4\nvalue = [3, 1, 0]"] ;
347 -> 349 ;
350 [label="gini = 0.0\nsamples = 2\nvalue = [2, 0, 0]"] ;
349 -> 350 ;
351 [label="X[0] <= 351.76\ngini = 0.5\nsamples = 2\nvalue = [1, 1, 0]"] ;
349 -> 351 ;
352 [label="gini = 0.0\nsamples = 1\nvalue = [0, 1, 0]"] ;
351 -> 352 ;
353 [label="gini = 0.0\nsamples = 1\nvalue = [1, 0, 0]"] ;
351 -> 353 ;
354 [label="gini = 0.0\nsamples = 3\nvalue = [0, 3, 0]"] ;
344 -> 354 ;
355 [label="X[0] <= 360.0\ngini = 0.298\nsamples = 11\nvalue = [9, 2, 0]"] ;
343 -> 355 ;
356 [label="gini = 0.0\nsamples = 4\nvalue = [4, 0, 0]"] ;
355 -> 356 ;
357 [label="X[0] <= 361.203\ngini = 0.408\nsamples = 7\nvalue = [5, 2, 0]"] ;
355 -> 357 ;
358 [label="gini = 0.5\nsamples = 4\nvalue = [2, 2, 0]"] ;
357 -> 358 ;
359 [label="gini = 0.0\nsamples = 3\nvalue = [3, 0, 0]"] ;
357 -> 359 ;
360 [label="X[0] <= 364.4\ngini = 0.473\nsamples = 13\nvalue = [5, 8, 0]"] ;
342 -> 360 ;
361 [label="gini = 0.0\nsamples = 2\nvalue = [0, 2, 0]"] ;
360 -> 361 ;
362 [label="X[0] <= 365.74\ngini = 0.496\nsamples = 11\nvalue = [5, 6, 0]"] ;
360 -> 362 ;
363 [label="gini = 0.0\nsamples = 1\nvalue = [1, 0, 0]"] ;
362 -> 363 ;
364 [label="X[0] <= 370.253\ngini = 0.48\nsamples = 10\nvalue = [4, 6, 0]"] ;
362 -> 364 ;
365 [label="X[0] <= 370.11\ngini = 0.494\nsamples = 9\nvalue = [4, 5, 0]"] ;
364 -> 365 ;
366 [label="X[0] <= 369.183\ngini = 0.469\nsamples = 8\nvalue = [3, 5, 0]"] ;
365 -> 366 ;
367 [label="X[0] <= 368.26\ngini = 0.5\nsamples = 6\nvalue = [3, 3, 0]"] ;
366 -> 367 ;
368 [label="X[0] <= 368.129\ngini = 0.48\nsamples = 5\nvalue = [2, 3, 0]"] ;
367 -> 368 ;
369 [label="X[0] <= 367.552\ngini = 0.5\nsamples = 4\nvalue = [2, 2, 0]"] ;
368 -> 369 ;
370 [label="gini = 0.444\nsamples = 3\nvalue = [1, 2, 0]"] ;
369 -> 370 ;
371 [label="gini = 0.0\nsamples = 1\nvalue = [1, 0, 0]"] ;
369 -> 371 ;
372 [label="gini = 0.0\nsamples = 1\nvalue = [0, 1, 0]"] ;
368 -> 372 ;
373 [label="gini = 0.0\nsamples = 1\nvalue = [1, 0, 0]"] ;
367 -> 373 ;
374 [label="gini = 0.0\nsamples = 2\nvalue = [0, 2, 0]"] ;
366 -> 374 ;
375 [label="gini = 0.0\nsamples = 1\nvalue = [1, 0, 0]"] ;
365 -> 375 ;
376 [label="gini = 0.0\nsamples = 1\nvalue = [0, 1, 0]"] ;
364 -> 376 ;
377 [label="X[0] <= 374.044\ngini = 0.375\nsamples = 28\nvalue = [21, 7, 0]"] ;
205 -> 377 ;
378 [label="gini = 0.0\nsamples = 6\nvalue = [6, 0, 0]"] ;
377 -> 378 ;
379 [label="X[0] <= 374.873\ngini = 0.434\nsamples = 22\nvalue = [15, 7, 0]"] ;
377 -> 379 ;
380 [label="gini = 0.0\nsamples = 2\nvalue = [0, 2, 0]"] ;
379 -> 380 ;
381 [label="X[0] <= 379.289\ngini = 0.375\nsamples = 20\nvalue = [15, 5, 0]"] ;
379 -> 381 ;
382 [label="X[0] <= 376.489\ngini = 0.5\nsamples = 4\nvalue = [2, 2, 0]"] ;
381 -> 382 ;
383 [label="gini = 0.0\nsamples = 2\nvalue = [2, 0, 0]"] ;
382 -> 383 ;
384 [label="gini = 0.0\nsamples = 2\nvalue = [0, 2, 0]"] ;
382 -> 384 ;
385 [label="X[0] <= 385.736\ngini = 0.305\nsamples = 16\nvalue = [13, 3, 0]"] ;
381 -> 385 ;
386 [label="X[0] <= 385.521\ngini = 0.375\nsamples = 12\nvalue = [9, 3, 0]"] ;
385 -> 386 ;
387 [label="X[0] <= 383.454\ngini = 0.298\nsamples = 11\nvalue = [9, 2, 0]"] ;
386 -> 387 ;
388 [label="X[0] <= 382.681\ngini = 0.375\nsamples = 8\nvalue = [6, 2, 0]"] ;
387 -> 388 ;
389 [label="X[0] <= 380.025\ngini = 0.245\nsamples = 7\nvalue = [6, 1, 0]"] ;
388 -> 389 ;
390 [label="X[0] <= 379.874\ngini = 0.375\nsamples = 4\nvalue = [3, 1, 0]"] ;
389 -> 390 ;
391 [label="gini = 0.0\nsamples = 1\nvalue = [1, 0, 0]"] ;
390 -> 391 ;
392 [label="gini = 0.444\nsamples = 3\nvalue = [2, 1, 0]"] ;
390 -> 392 ;
393 [label="gini = 0.0\nsamples = 3\nvalue = [3, 0, 0]"] ;
389 -> 393 ;
394 [label="gini = 0.0\nsamples = 1\nvalue = [0, 1, 0]"] ;
388 -> 394 ;
395 [label="gini = 0.0\nsamples = 3\nvalue = [3, 0, 0]"] ;
387 -> 395 ;
396 [label="gini = 0.0\nsamples = 1\nvalue = [0, 1, 0]"] ;
386 -> 396 ;
397 [label="gini = 0.0\nsamples = 4\nvalue = [4, 0, 0]"] ;
385 -> 397 ;
398 [label="X[0] <= 389.994\ngini = 0.54\nsamples = 218\nvalue = [96, 112, 10]"] ;
204 -> 398 ;
399 [label="gini = 0.0\nsamples = 4\nvalue = [0, 4, 0]"] ;
398 -> 399 ;
400 [label="X[0] <= 495.041\ngini = 0.542\nsamples = 214\nvalue = [96, 108, 10]"] ;
398 -> 400 ;
401 [label="X[0] <= 493.311\ngini = 0.542\nsamples = 212\nvalue = [94, 108, 10]"] ;
400 -> 401 ;
402 [label="X[0] <= 490.005\ngini = 0.543\nsamples = 208\nvalue = [94, 104, 10]"] ;
401 -> 402 ;
403 [label="X[0] <= 465.653\ngini = 0.543\nsamples = 206\nvalue = [92, 104, 10]"] ;
402 -> 403 ;
404 [label="X[0] <= 464.88\ngini = 0.529\nsamples = 189\nvalue = [87, 96, 6]"] ;
403 -> 404 ;
405 [label="X[0] <= 459.357\ngini = 0.528\nsamples = 185\nvalue = [83, 96, 6]"] ;
404 -> 405 ;
406 [label="X[0] <= 458.51\ngini = 0.531\nsamples = 178\nvalue = [82, 90, 6]"] ;
405 -> 406 ;
407 [label="X[0] <= 450.488\ngini = 0.531\nsamples = 175\nvalue = [79, 90, 6]"] ;
406 -> 407 ;
408 [label="X[0] <= 449.53\ngini = 0.538\nsamples = 147\nvalue = [70, 71, 6]"] ;
407 -> 408 ;
409 [label="X[0] <= 427.453\ngini = 0.533\nsamples = 138\nvalue = [63, 70, 5]"] ;
408 -> 409 ;
410 [label="X[0] <= 415.709\ngini = 0.526\nsamples = 82\nvalue = [34, 45, 3]"] ;
409 -> 410 ;
411 [label="X[0] <= 393.069\ngini = 0.557\nsamples = 46\nvalue = [23, 20, 3]"] ;
410 -> 411 ;
412 [label="X[0] <= 390.773\ngini = 0.512\nsamples = 11\nvalue = [3, 7, 1]"] ;
411 -> 412 ;
413 [label="X[0] <= 389.999\ngini = 0.48\nsamples = 5\nvalue = [3, 2, 0]"] ;
412 -> 413 ;
414 [label="gini = 0.0\nsamples = 1\nvalue = [1, 0, 0]"] ;
413 -> 414 ;
415 [label="X[0] <= 390.452\ngini = 0.5\nsamples = 4\nvalue = [2, 2, 0]"] ;
413 -> 415 ;
416 [label="X[0] <= 390.164\ngini = 0.444\nsamples = 3\nvalue = [1, 2, 0]"] ;
415 -> 416 ;
417 [label="gini = 0.5\nsamples = 2\nvalue = [1, 1, 0]"] ;
416 -> 417 ;
418 [label="gini = 0.0\nsamples = 1\nvalue = [0, 1, 0]"] ;
416 -> 418 ;
419 [label="gini = 0.0\nsamples = 1\nvalue = [1, 0, 0]"] ;
415 -> 419 ;
420 [label="X[0] <= 391.311\ngini = 0.278\nsamples = 6\nvalue = [0, 5, 1]"] ;
412 -> 420 ;
421 [label="X[0] <= 391.106\ngini = 0.5\nsamples = 2\nvalue = [0, 1, 1]"] ;
420 -> 421 ;
422 [label="gini = 0.0\nsamples = 1\nvalue = [0, 1, 0]"] ;
421 -> 422 ;
423 [label="gini = 0.0\nsamples = 1\nvalue = [0, 0, 1]"] ;
421 -> 423 ;
424 [label="gini = 0.0\nsamples = 4\nvalue = [0, 4, 0]"] ;
420 -> 424 ;
425 [label="X[0] <= 394.999\ngini = 0.532\nsamples = 35\nvalue = [20, 13, 2]"] ;
411 -> 425 ;
426 [label="gini = 0.0\nsamples = 4\nvalue = [4, 0, 0]"] ;
425 -> 426 ;
427 [label="X[0] <= 410.486\ngini = 0.554\nsamples = 31\nvalue = [16, 13, 2]"] ;
425 -> 427 ;
428 [label="X[0] <= 409.301\ngini = 0.587\nsamples = 15\nvalue = [5, 8, 2]"] ;
427 -> 428 ;
429 [label="X[0] <= 406.151\ngini = 0.625\nsamples = 12\nvalue = [5, 5, 2]"] ;
428 -> 429 ;
430 [label="X[0] <= 402.826\ngini = 0.62\nsamples = 10\nvalue = [3, 5, 2]"] ;
429 -> 430 ;
431 [label="X[0] <= 400.324\ngini = 0.568\nsamples = 9\nvalue = [3, 5, 1]"] ;
430 -> 431 ;
432 [label="X[0] <= 395.022\ngini = 0.612\nsamples = 7\nvalue = [3, 3, 1]"] ;
431 -> 432 ;
433 [label="gini = 0.0\nsamples = 1\nvalue = [0, 1, 0]"] ;
432 -> 433 ;
434 [label="X[0] <= 396.817\ngini = 0.611\nsamples = 6\nvalue = [3, 2, 1]"] ;
432 -> 434 ;
435 [label="gini = 0.0\nsamples = 2\nvalue = [2, 0, 0]"] ;
434 -> 435 ;
436 [label="X[0] <= 398.639\ngini = 0.625\nsamples = 4\nvalue = [1, 2, 1]"] ;
434 -> 436 ;
437 [label="gini = 0.0\nsamples = 1\nvalue = [0, 1, 0]"] ;
436 -> 437 ;
438 [label="X[0] <= 399.445\ngini = 0.667\nsamples = 3\nvalue = [1, 1, 1]"] ;
436 -> 438 ;
439 [label="gini = 0.0\nsamples = 1\nvalue = [0, 0, 1]"] ;
438 -> 439 ;
440 [label="gini = 0.5\nsamples = 2\nvalue = [1, 1, 0]"] ;
438 -> 440 ;
441 [label="gini = 0.0\nsamples = 2\nvalue = [0, 2, 0]"] ;
431 -> 441 ;
442 [label="gini = 0.0\nsamples = 1\nvalue = [0, 0, 1]"] ;
430 -> 442 ;
443 [label="gini = 0.0\nsamples = 2\nvalue = [2, 0, 0]"] ;
429 -> 443 ;
444 [label="gini = 0.0\nsamples = 3\nvalue = [0, 3, 0]"] ;
428 -> 444 ;
445 [label="X[0] <= 413.094\ngini = 0.43\nsamples = 16\nvalue = [11, 5, 0]"] ;
427 -> 445 ;
446 [label="X[0] <= 412.085\ngini = 0.219\nsamples = 8\nvalue = [7, 1, 0]"] ;
445 -> 446 ;
447 [label="X[0] <= 411.629\ngini = 0.375\nsamples = 4\nvalue = [3, 1, 0]"] ;
446 -> 447 ;
448 [label="gini = 0.0\nsamples = 3\nvalue = [3, 0, 0]"] ;
447 -> 448 ;
449 [label="gini = 0.0\nsamples = 1\nvalue = [0, 1, 0]"] ;
447 -> 449 ;
450 [label="gini = 0.0\nsamples = 4\nvalue = [4, 0, 0]"] ;
446 -> 450 ;
451 [label="X[0] <= 414.69\ngini = 0.5\nsamples = 8\nvalue = [4, 4, 0]"] ;
445 -> 451 ;
452 [label="gini = 0.0\nsamples = 2\nvalue = [0, 2, 0]"] ;
451 -> 452 ;
453 [label="X[0] <= 414.93\ngini = 0.444\nsamples = 6\nvalue = [4, 2, 0]"] ;
451 -> 453 ;
454 [label="gini = 0.0\nsamples = 1\nvalue = [1, 0, 0]"] ;
453 -> 454 ;
455 [label="X[0] <= 414.99\ngini = 0.48\nsamples = 5\nvalue = [3, 2, 0]"] ;
453 -> 455 ;
456 [label="gini = 0.0\nsamples = 1\nvalue = [0, 1, 0]"] ;
455 -> 456 ;
457 [label="X[0] <= 415.16\ngini = 0.375\nsamples = 4\nvalue = [3, 1, 0]"] ;
455 -> 457 ;
458 [label="gini = 0.0\nsamples = 2\nvalue = [2, 0, 0]"] ;
457 -> 458 ;
459 [label="X[0] <= 415.428\ngini = 0.5\nsamples = 2\nvalue = [1, 1, 0]"] ;
457 -> 459 ;
460 [label="gini = 0.0\nsamples = 1\nvalue = [0, 1, 0]"] ;
459 -> 460 ;
461 [label="gini = 0.0\nsamples = 1\nvalue = [1, 0, 0]"] ;
459 -> 461 ;
462 [label="X[0] <= 417.997\ngini = 0.424\nsamples = 36\nvalue = [11, 25, 0]"] ;
410 -> 462 ;
463 [label="gini = 0.0\nsamples = 8\nvalue = [0, 8, 0]"] ;
462 -> 463 ;
464 [label="X[0] <= 424.999\ngini = 0.477\nsamples = 28\nvalue = [11, 17, 0]"] ;
462 -> 464 ;
465 [label="X[0] <= 423.83\ngini = 0.499\nsamples = 21\nvalue = [10, 11, 0]"] ;
464 -> 465 ;
466 [label="X[0] <= 422.755\ngini = 0.475\nsamples = 18\nvalue = [7, 11, 0]"] ;
465 -> 466 ;
467 [label="X[0] <= 421.875\ngini = 0.5\nsamples = 14\nvalue = [7, 7, 0]"] ;
466 -> 467 ;
468 [label="X[0] <= 420.326\ngini = 0.486\nsamples = 12\nvalue = [5, 7, 0]"] ;
467 -> 468 ;
469 [label="X[0] <= 419.271\ngini = 0.49\nsamples = 7\nvalue = [4, 3, 0]"] ;
468 -> 469 ;
470 [label="X[0] <= 418.13\ngini = 0.375\nsamples = 4\nvalue = [1, 3, 0]"] ;
469 -> 470 ;
471 [label="gini = 0.0\nsamples = 1\nvalue = [1, 0, 0]"] ;
470 -> 471 ;
472 [label="gini = 0.0\nsamples = 3\nvalue = [0, 3, 0]"] ;
470 -> 472 ;
473 [label="gini = 0.0\nsamples = 3\nvalue = [3, 0, 0]"] ;
469 -> 473 ;
474 [label="X[0] <= 421.045\ngini = 0.32\nsamples = 5\nvalue = [1, 4, 0]"] ;
468 -> 474 ;
475 [label="gini = 0.0\nsamples = 3\nvalue = [0, 3, 0]"] ;
474 -> 475 ;
476 [label="X[0] <= 421.287\ngini = 0.5\nsamples = 2\nvalue = [1, 1, 0]"] ;
474 -> 476 ;
477 [label="gini = 0.0\nsamples = 1\nvalue = [1, 0, 0]"] ;
476 -> 477 ;
478 [label="gini = 0.0\nsamples = 1\nvalue = [0, 1, 0]"] ;
476 -> 478 ;
479 [label="gini = 0.0\nsamples = 2\nvalue = [2, 0, 0]"] ;
467 -> 479 ;
480 [label="gini = 0.0\nsamples = 4\nvalue = [0, 4, 0]"] ;
466 -> 480 ;
481 [label="gini = 0.0\nsamples = 3\nvalue = [3, 0, 0]"] ;
465 -> 481 ;
482 [label="X[0] <= 426.73\ngini = 0.245\nsamples = 7\nvalue = [1, 6, 0]"] ;
464 -> 482 ;
483 [label="gini = 0.0\nsamples = 4\nvalue = [0, 4, 0]"] ;
482 -> 483 ;
484 [label="X[0] <= 427.03\ngini = 0.444\nsamples = 3\nvalue = [1, 2, 0]"] ;
482 -> 484 ;
485 [label="gini = 0.0\nsamples = 1\nvalue = [1, 0, 0]"] ;
484 -> 485 ;
486 [label="gini = 0.0\nsamples = 2\nvalue = [0, 2, 0]"] ;
484 -> 486 ;
487 [label="X[0] <= 429.59\ngini = 0.531\nsamples = 56\nvalue = [29, 25, 2]"] ;
409 -> 487 ;
488 [label="X[0] <= 428.569\ngini = 0.245\nsamples = 7\nvalue = [6, 1, 0]"] ;
487 -> 488 ;
489 [label="gini = 0.0\nsamples = 3\nvalue = [3, 0, 0]"] ;
488 -> 489 ;
490 [label="X[0] <= 428.794\ngini = 0.375\nsamples = 4\nvalue = [3, 1, 0]"] ;
488 -> 490 ;
491 [label="gini = 0.0\nsamples = 1\nvalue = [0, 1, 0]"] ;
490 -> 491 ;
492 [label="gini = 0.0\nsamples = 3\nvalue = [3, 0, 0]"] ;
490 -> 492 ;
493 [label="X[0] <= 432.465\ngini = 0.538\nsamples = 49\nvalue = [23, 24, 2]"] ;
487 -> 493 ;
494 [label="X[0] <= 431.035\ngini = 0.449\nsamples = 7\nvalue = [1, 5, 1]"] ;
493 -> 494 ;
495 [label="X[0] <= 430.338\ngini = 0.625\nsamples = 4\nvalue = [1, 2, 1]"] ;
494 -> 495 ;
496 [label="gini = 0.0\nsamples = 2\nvalue = [0, 2, 0]"] ;
495 -> 496 ;
497 [label="X[0] <= 430.793\ngini = 0.5\nsamples = 2\nvalue = [1, 0, 1]"] ;
495 -> 497 ;
498 [label="gini = 0.0\nsamples = 1\nvalue = [1, 0, 0]"] ;
497 -> 498 ;
499 [label="gini = 0.0\nsamples = 1\nvalue = [0, 0, 1]"] ;
497 -> 499 ;
500 [label="gini = 0.0\nsamples = 3\nvalue = [0, 3, 0]"] ;
494 -> 500 ;
501 [label="X[0] <= 440.835\ngini = 0.52\nsamples = 42\nvalue = [22, 19, 1]"] ;
493 -> 501 ;
502 [label="X[0] <= 436.297\ngini = 0.401\nsamples = 18\nvalue = [13, 5, 0]"] ;
501 -> 502 ;
503 [label="X[0] <= 433.18\ngini = 0.49\nsamples = 7\nvalue = [3, 4, 0]"] ;
502 -> 503 ;
504 [label="gini = 0.0\nsamples = 1\nvalue = [1, 0, 0]"] ;
503 -> 504 ;
505 [label="X[0] <= 433.65\ngini = 0.444\nsamples = 6\nvalue = [2, 4, 0]"] ;
503 -> 505 ;
506 [label="gini = 0.0\nsamples = 1\nvalue = [0, 1, 0]"] ;
505 -> 506 ;
507 [label="X[0] <= 434.089\ngini = 0.48\nsamples = 5\nvalue = [2, 3, 0]"] ;
505 -> 507 ;
508 [label="gini = 0.0\nsamples = 1\nvalue = [1, 0, 0]"] ;
507 -> 508 ;
509 [label="X[0] <= 434.745\ngini = 0.375\nsamples = 4\nvalue = [1, 3, 0]"] ;
507 -> 509 ;
510 [label="gini = 0.0\nsamples = 2\nvalue = [0, 2, 0]"] ;
509 -> 510 ;
511 [label="X[0] <= 435.499\ngini = 0.5\nsamples = 2\nvalue = [1, 1, 0]"] ;
509 -> 511 ;
512 [label="gini = 0.0\nsamples = 1\nvalue = [1, 0, 0]"] ;
511 -> 512 ;
513 [label="gini = 0.0\nsamples = 1\nvalue = [0, 1, 0]"] ;
511 -> 513 ;
514 [label="X[0] <= 439.18\ngini = 0.165\nsamples = 11\nvalue = [10, 1, 0]"] ;
502 -> 514 ;
515 [label="gini = 0.0\nsamples = 6\nvalue = [6, 0, 0]"] ;
514 -> 515 ;
516 [label="X[0] <= 439.9\ngini = 0.32\nsamples = 5\nvalue = [4, 1, 0]"] ;
514 -> 516 ;
517 [label="gini = 0.0\nsamples = 1\nvalue = [0, 1, 0]"] ;
516 -> 517 ;
518 [label="gini = 0.0\nsamples = 4\nvalue = [4, 0, 0]"] ;
516 -> 518 ;
519 [label="X[0] <= 444.323\ngini = 0.517\nsamples = 24\nvalue = [9, 14, 1]"] ;
501 -> 519 ;
520 [label="X[0] <= 442.495\ngini = 0.32\nsamples = 10\nvalue = [2, 8, 0]"] ;
519 -> 520 ;
521 [label="X[0] <= 441.387\ngini = 0.5\nsamples = 4\nvalue = [2, 2, 0]"] ;
520 -> 521 ;
522 [label="gini = 0.0\nsamples = 2\nvalue = [0, 2, 0]"] ;
521 -> 522 ;
523 [label="gini = 0.0\nsamples = 2\nvalue = [2, 0, 0]"] ;
521 -> 523 ;
524 [label="gini = 0.0\nsamples = 6\nvalue = [0, 6, 0]"] ;
520 -> 524 ;
525 [label="X[0] <= 448.275\ngini = 0.561\nsamples = 14\nvalue = [7, 6, 1]"] ;
519 -> 525 ;
526 [label="X[0] <= 447.434\ngini = 0.54\nsamples = 10\nvalue = [6, 3, 1]"] ;
525 -> 526 ;
527 [label="X[0] <= 446.141\ngini = 0.612\nsamples = 7\nvalue = [3, 3, 1]"] ;
526 -> 527 ;
528 [label="X[0] <= 446.012\ngini = 0.56\nsamples = 5\nvalue = [3, 1, 1]"] ;
527 -> 528 ;
529 [label="X[0] <= 445.375\ngini = 0.375\nsamples = 4\nvalue = [3, 1, 0]"] ;
528 -> 529 ;
530 [label="X[0] <= 444.656\ngini = 0.5\nsamples = 2\nvalue = [1, 1, 0]"] ;
529 -> 530 ;
531 [label="gini = 0.0\nsamples = 1\nvalue = [1, 0, 0]"] ;
530 -> 531 ;
532 [label="gini = 0.0\nsamples = 1\nvalue = [0, 1, 0]"] ;
530 -> 532 ;
533 [label="gini = 0.0\nsamples = 2\nvalue = [2, 0, 0]"] ;
529 -> 533 ;
534 [label="gini = 0.0\nsamples = 1\nvalue = [0, 0, 1]"] ;
528 -> 534 ;
535 [label="gini = 0.0\nsamples = 2\nvalue = [0, 2, 0]"] ;
527 -> 535 ;
536 [label="gini = 0.0\nsamples = 3\nvalue = [3, 0, 0]"] ;
526 -> 536 ;
537 [label="X[0] <= 448.807\ngini = 0.375\nsamples = 4\nvalue = [1, 3, 0]"] ;
525 -> 537 ;
538 [label="gini = 0.0\nsamples = 2\nvalue = [0, 2, 0]"] ;
537 -> 538 ;
539 [label="X[0] <= 449.035\ngini = 0.5\nsamples = 2\nvalue = [1, 1, 0]"] ;
537 -> 539 ;
540 [label="gini = 0.0\nsamples = 1\nvalue = [1, 0, 0]"] ;
539 -> 540 ;
541 [label="gini = 0.0\nsamples = 1\nvalue = [0, 1, 0]"] ;
539 -> 541 ;
542 [label="X[0] <= 449.997\ngini = 0.37\nsamples = 9\nvalue = [7, 1, 1]"] ;
408 -> 542 ;
543 [label="X[0] <= 449.944\ngini = 0.5\nsamples = 2\nvalue = [1, 0, 1]"] ;
542 -> 543 ;
544 [label="gini = 0.0\nsamples = 1\nvalue = [1, 0, 0]"] ;
543 -> 544 ;
545 [label="gini = 0.0\nsamples = 1\nvalue = [0, 0, 1]"] ;
543 -> 545 ;
546 [label="X[0] <= 450.047\ngini = 0.245\nsamples = 7\nvalue = [6, 1, 0]"] ;
542 -> 546 ;
547 [label="gini = 0.0\nsamples = 3\nvalue = [3, 0, 0]"] ;
546 -> 547 ;
548 [label="X[0] <= 450.182\ngini = 0.375\nsamples = 4\nvalue = [3, 1, 0]"] ;
546 -> 548 ;
549 [label="gini = 0.0\nsamples = 1\nvalue = [0, 1, 0]"] ;
548 -> 549 ;
550 [label="gini = 0.0\nsamples = 3\nvalue = [3, 0, 0]"] ;
548 -> 550 ;
551 [label="X[0] <= 452.489\ngini = 0.436\nsamples = 28\nvalue = [9, 19, 0]"] ;
407 -> 551 ;
552 [label="X[0] <= 450.915\ngini = 0.198\nsamples = 9\nvalue = [1, 8, 0]"] ;
551 -> 552 ;
553 [label="gini = 0.0\nsamples = 4\nvalue = [0, 4, 0]"] ;
552 -> 553 ;
554 [label="X[0] <= 451.218\ngini = 0.32\nsamples = 5\nvalue = [1, 4, 0]"] ;
552 -> 554 ;
555 [label="gini = 0.0\nsamples = 1\nvalue = [1, 0, 0]"] ;
554 -> 555 ;
556 [label="gini = 0.0\nsamples = 4\nvalue = [0, 4, 0]"] ;
554 -> 556 ;
557 [label="X[0] <= 453.145\ngini = 0.488\nsamples = 19\nvalue = [8, 11, 0]"] ;
551 -> 557 ;
558 [label="gini = 0.0\nsamples = 4\nvalue = [4, 0, 0]"] ;
557 -> 558 ;
559 [label="X[0] <= 453.337\ngini = 0.391\nsamples = 15\nvalue = [4, 11, 0]"] ;
557 -> 559 ;
560 [label="gini = 0.0\nsamples = 2\nvalue = [0, 2, 0]"] ;
559 -> 560 ;
561 [label="X[0] <= 453.722\ngini = 0.426\nsamples = 13\nvalue = [4, 9, 0]"] ;
559 -> 561 ;
562 [label="gini = 0.0\nsamples = 1\nvalue = [1, 0, 0]"] ;
561 -> 562 ;
563 [label="X[0] <= 455.37\ngini = 0.375\nsamples = 12\nvalue = [3, 9, 0]"] ;
561 -> 563 ;
564 [label="gini = 0.0\nsamples = 3\nvalue = [0, 3, 0]"] ;
563 -> 564 ;
565 [label="X[0] <= 455.674\ngini = 0.444\nsamples = 9\nvalue = [3, 6, 0]"] ;
563 -> 565 ;
566 [label="gini = 0.0\nsamples = 1\nvalue = [1, 0, 0]"] ;
565 -> 566 ;
567 [label="X[0] <= 456.04\ngini = 0.375\nsamples = 8\nvalue = [2, 6, 0]"] ;
565 -> 567 ;
568 [label="X[0] <= 455.975\ngini = 0.5\nsamples = 2\nvalue = [1, 1, 0]"] ;
567 -> 568 ;
569 [label="gini = 0.0\nsamples = 1\nvalue = [0, 1, 0]"] ;
568 -> 569 ;
570 [label="gini = 0.0\nsamples = 1\nvalue = [1, 0, 0]"] ;
568 -> 570 ;
571 [label="X[0] <= 458.04\ngini = 0.278\nsamples = 6\nvalue = [1, 5, 0]"] ;
567 -> 571 ;
572 [label="gini = 0.0\nsamples = 4\nvalue = [0, 4, 0]"] ;
571 -> 572 ;
573 [label="X[0] <= 458.1\ngini = 0.5\nsamples = 2\nvalue = [1, 1, 0]"] ;
571 -> 573 ;
574 [label="gini = 0.0\nsamples = 1\nvalue = [1, 0, 0]"] ;
573 -> 574 ;
575 [label="gini = 0.0\nsamples = 1\nvalue = [0, 1, 0]"] ;
573 -> 575 ;
576 [label="gini = 0.0\nsamples = 3\nvalue = [3, 0, 0]"] ;
406 -> 576 ;
577 [label="X[0] <= 462.701\ngini = 0.245\nsamples = 7\nvalue = [1, 6, 0]"] ;
405 -> 577 ;
578 [label="gini = 0.0\nsamples = 4\nvalue = [0, 4, 0]"] ;
577 -> 578 ;
579 [label="X[0] <= 464.02\ngini = 0.444\nsamples = 3\nvalue = [1, 2, 0]"] ;
577 -> 579 ;
580 [label="gini = 0.0\nsamples = 1\nvalue = [1, 0, 0]"] ;
579 -> 580 ;
581 [label="gini = 0.0\nsamples = 2\nvalue = [0, 2, 0]"] ;
579 -> 581 ;
582 [label="gini = 0.0\nsamples = 4\nvalue = [4, 0, 0]"] ;
404 -> 582 ;
583 [label="X[0] <= 487.297\ngini = 0.637\nsamples = 17\nvalue = [5, 8, 4]"] ;
403 -> 583 ;
584 [label="X[0] <= 477.5\ngini = 0.658\nsamples = 15\nvalue = [5, 6, 4]"] ;
583 -> 584 ;
585 [label="X[0] <= 475.001\ngini = 0.639\nsamples = 13\nvalue = [3, 6, 4]"] ;
584 -> 585 ;
586 [label="X[0] <= 466.24\ngini = 0.625\nsamples = 12\nvalue = [3, 6, 3]"] ;
585 -> 586 ;
587 [label="gini = 0.0\nsamples = 1\nvalue = [0, 1, 0]"] ;
586 -> 587 ;
588 [label="X[0] <= 466.738\ngini = 0.645\nsamples = 11\nvalue = [3, 5, 3]"] ;
586 -> 588 ;
589 [label="gini = 0.0\nsamples = 1\nvalue = [0, 0, 1]"] ;
588 -> 589 ;
590 [label="X[0] <= 466.825\ngini = 0.62\nsamples = 10\nvalue = [3, 5, 2]"] ;
588 -> 590 ;
591 [label="gini = 0.0\nsamples = 1\nvalue = [1, 0, 0]"] ;
590 -> 591 ;
592 [label="X[0] <= 468.3\ngini = 0.593\nsamples = 9\nvalue = [2, 5, 2]"] ;
590 -> 592 ;
593 [label="gini = 0.0\nsamples = 2\nvalue = [0, 2, 0]"] ;
592 -> 593 ;
594 [label="X[0] <= 470.117\ngini = 0.653\nsamples = 7\nvalue = [2, 3, 2]"] ;
592 -> 594 ;
595 [label="gini = 0.0\nsamples = 1\nvalue = [1, 0, 0]"] ;
594 -> 595 ;
596 [label="X[0] <= 474.885\ngini = 0.611\nsamples = 6\nvalue = [1, 3, 2]"] ;
594 -> 596 ;
597 [label="X[0] <= 472.125\ngini = 0.444\nsamples = 3\nvalue = [0, 1, 2]"] ;
596 -> 597 ;
598 [label="gini = 0.0\nsamples = 1\nvalue = [0, 1, 0]"] ;
597 -> 598 ;
599 [label="gini = 0.0\nsamples = 2\nvalue = [0, 0, 2]"] ;
597 -> 599 ;
600 [label="X[0] <= 475.0\ngini = 0.444\nsamples = 3\nvalue = [1, 2, 0]"] ;
596 -> 600 ;
601 [label="gini = 0.5\nsamples = 2\nvalue = [1, 1, 0]"] ;
600 -> 601 ;
602 [label="gini = 0.0\nsamples = 1\nvalue = [0, 1, 0]"] ;
600 -> 602 ;
603 [label="gini = 0.0\nsamples = 1\nvalue = [0, 0, 1]"] ;
585 -> 603 ;
604 [label="gini = 0.0\nsamples = 2\nvalue = [2, 0, 0]"] ;
584 -> 604 ;
605 [label="gini = 0.0\nsamples = 2\nvalue = [0, 2, 0]"] ;
583 -> 605 ;
606 [label="gini = 0.0\nsamples = 2\nvalue = [2, 0, 0]"] ;
402 -> 606 ;
607 [label="gini = 0.0\nsamples = 4\nvalue = [0, 4, 0]"] ;
401 -> 607 ;
608 [label="gini = 0.0\nsamples = 2\nvalue = [2, 0, 0]"] ;
400 -> 608 ;
609 [label="gini = 0.0\nsamples = 3\nvalue = [0, 3, 0]"] ;
115 -> 609 ;
610 [label="X[0] <= 506.193\ngini = 0.391\nsamples = 15\nvalue = [11, 4, 0]"] ;
8 -> 610 ;
611 [label="gini = 0.0\nsamples = 7\nvalue = [7, 0, 0]"] ;
610 -> 611 ;
612 [label="X[0] <= 517.18\ngini = 0.5\nsamples = 8\nvalue = [4, 4, 0]"] ;
610 -> 612 ;
613 [label="X[0] <= 507.357\ngini = 0.32\nsamples = 5\nvalue = [1, 4, 0]"] ;
612 -> 613 ;
614 [label="gini = 0.0\nsamples = 2\nvalue = [0, 2, 0]"] ;
613 -> 614 ;
615 [label="X[0] <= 509.547\ngini = 0.444\nsamples = 3\nvalue = [1, 2, 0]"] ;
613 -> 615 ;
616 [label="gini = 0.0\nsamples = 1\nvalue = [1, 0, 0]"] ;
615 -> 616 ;
617 [label="gini = 0.0\nsamples = 2\nvalue = [0, 2, 0]"] ;
615 -> 617 ;
618 [label="gini = 0.0\nsamples = 3\nvalue = [3, 0, 0]"] ;
612 -> 618 ;
619 [label="X[0] <= 524.867\ngini = 0.667\nsamples = 12\nvalue = [4, 4, 4]"] ;
7 -> 619 ;
620 [label="X[0] <= 524.384\ngini = 0.5\nsamples = 6\nvalue = [0, 3, 3]"] ;
619 -> 620 ;
621 [label="gini = 0.0\nsamples = 1\nvalue = [0, 0, 1]"] ;
620 -> 621 ;
622 [label="X[0] <= 524.821\ngini = 0.48\nsamples = 5\nvalue = [0, 3, 2]"] ;
620 -> 622 ;
623 [label="X[0] <= 524.77\ngini = 0.375\nsamples = 4\nvalue = [0, 3, 1]"] ;
622 -> 623 ;
624 [label="gini = 0.0\nsamples = 1\nvalue = [0, 1, 0]"] ;
623 -> 624 ;
625 [label="X[0] <= 524.779\ngini = 0.444\nsamples = 3\nvalue = [0, 2, 1]"] ;
623 -> 625 ;
626 [label="gini = 0.5\nsamples = 2\nvalue = [0, 1, 1]"] ;
625 -> 626 ;
627 [label="gini = 0.0\nsamples = 1\nvalue = [0, 1, 0]"] ;
625 -> 627 ;
628 [label="gini = 0.0\nsamples = 1\nvalue = [0, 0, 1]"] ;
622 -> 628 ;
629 [label="X[0] <= 527.0\ngini = 0.5\nsamples = 6\nvalue = [4, 1, 1]"] ;
619 -> 629 ;
630 [label="gini = 0.0\nsamples = 2\nvalue = [2, 0, 0]"] ;
629 -> 630 ;
631 [label="X[0] <= 529.884\ngini = 0.625\nsamples = 4\nvalue = [2, 1, 1]"] ;
629 -> 631 ;
632 [label="X[0] <= 529.407\ngini = 0.5\nsamples = 2\nvalue = [0, 1, 1]"] ;
631 -> 632 ;
633 [label="gini = 0.0\nsamples = 1\nvalue = [0, 1, 0]"] ;
632 -> 633 ;
634 [label="gini = 0.0\nsamples = 1\nvalue = [0, 0, 1]"] ;
632 -> 634 ;
635 [label="gini = 0.0\nsamples = 2\nvalue = [2, 0, 0]"] ;
631 -> 635 ;
636 [label="X[0] <= 532.917\ngini = 0.245\nsamples = 7\nvalue = [1, 6, 0]"] ;
6 -> 636 ;
637 [label="gini = 0.0\nsamples = 4\nvalue = [0, 4, 0]"] ;
636 -> 637 ;
638 [label="X[0] <= 535.116\ngini = 0.444\nsamples = 3\nvalue = [1, 2, 0]"] ;
636 -> 638 ;
639 [label="gini = 0.0\nsamples = 1\nvalue = [1, 0, 0]"] ;
638 -> 639 ;
640 [label="gini = 0.0\nsamples = 2\nvalue = [0, 2, 0]"] ;
638 -> 640 ;
641 [label="X[0] <= 576.609\ngini = 0.495\nsamples = 223\nvalue = [131, 89, 3]"] ;
5 -> 641 ;
642 [label="X[0] <= 575.32\ngini = 0.334\nsamples = 33\nvalue = [26, 7, 0]"] ;
641 -> 642 ;
643 [label="X[0] <= 567.421\ngini = 0.375\nsamples = 28\nvalue = [21, 7, 0]"] ;
642 -> 643 ;
644 [label="gini = 0.0\nsamples = 4\nvalue = [4, 0, 0]"] ;
643 -> 644 ;
645 [label="X[0] <= 567.913\ngini = 0.413\nsamples = 24\nvalue = [17, 7, 0]"] ;
643 -> 645 ;
646 [label="gini = 0.0\nsamples = 1\nvalue = [0, 1, 0]"] ;
645 -> 646 ;
647 [label="X[0] <= 572.87\ngini = 0.386\nsamples = 23\nvalue = [17, 6, 0]"] ;
645 -> 647 ;
648 [label="X[0] <= 571.295\ngini = 0.278\nsamples = 12\nvalue = [10, 2, 0]"] ;
647 -> 648 ;
649 [label="X[0] <= 570.725\ngini = 0.375\nsamples = 8\nvalue = [6, 2, 0]"] ;
648 -> 649 ;
650 [label="X[0] <= 569.691\ngini = 0.245\nsamples = 7\nvalue = [6, 1, 0]"] ;
649 -> 650 ;
651 [label="X[0] <= 568.913\ngini = 0.444\nsamples = 3\nvalue = [2, 1, 0]"] ;
650 -> 651 ;
652 [label="gini = 0.0\nsamples = 2\nvalue = [2, 0, 0]"] ;
651 -> 652 ;
653 [label="gini = 0.0\nsamples = 1\nvalue = [0, 1, 0]"] ;
651 -> 653 ;
654 [label="gini = 0.0\nsamples = 4\nvalue = [4, 0, 0]"] ;
650 -> 654 ;
655 [label="gini = 0.0\nsamples = 1\nvalue = [0, 1, 0]"] ;
649 -> 655 ;
656 [label="gini = 0.0\nsamples = 4\nvalue = [4, 0, 0]"] ;
648 -> 656 ;
657 [label="X[0] <= 573.13\ngini = 0.463\nsamples = 11\nvalue = [7, 4, 0]"] ;
647 -> 657 ;
658 [label="gini = 0.0\nsamples = 2\nvalue = [0, 2, 0]"] ;
657 -> 658 ;
659 [label="X[0] <= 574.61\ngini = 0.346\nsamples = 9\nvalue = [7, 2, 0]"] ;
657 -> 659 ;
660 [label="X[0] <= 573.453\ngini = 0.245\nsamples = 7\nvalue = [6, 1, 0]"] ;
659 -> 660 ;
661 [label="X[0] <= 573.315\ngini = 0.444\nsamples = 3\nvalue = [2, 1, 0]"] ;
660 -> 661 ;
662 [label="gini = 0.0\nsamples = 2\nvalue = [2, 0, 0]"] ;
661 -> 662 ;
663 [label="gini = 0.0\nsamples = 1\nvalue = [0, 1, 0]"] ;
661 -> 663 ;
664 [label="gini = 0.0\nsamples = 4\nvalue = [4, 0, 0]"] ;
660 -> 664 ;
665 [label="gini = 0.5\nsamples = 2\nvalue = [1, 1, 0]"] ;
659 -> 665 ;
666 [label="gini = 0.0\nsamples = 5\nvalue = [5, 0, 0]"] ;
642 -> 666 ;
667 [label="X[0] <= 586.154\ngini = 0.508\nsamples = 190\nvalue = [105, 82, 3]"] ;
641 -> 667 ;
668 [label="X[0] <= 584.925\ngini = 0.506\nsamples = 32\nvalue = [12, 19, 1]"] ;
667 -> 668 ;
669 [label="X[0] <= 584.661\ngini = 0.528\nsamples = 28\nvalue = [12, 15, 1]"] ;
668 -> 669 ;
670 [label="X[0] <= 579.34\ngini = 0.518\nsamples = 26\nvalue = [10, 15, 1]"] ;
669 -> 670 ;
671 [label="X[0] <= 576.867\ngini = 0.469\nsamples = 8\nvalue = [5, 3, 0]"] ;
670 -> 671 ;
672 [label="gini = 0.0\nsamples = 1\nvalue = [0, 1, 0]"] ;
671 -> 672 ;
673 [label="X[0] <= 579.02\ngini = 0.408\nsamples = 7\nvalue = [5, 2, 0]"] ;
671 -> 673 ;
674 [label="X[0] <= 578.645\ngini = 0.48\nsamples = 5\nvalue = [3, 2, 0]"] ;
673 -> 674 ;
675 [label="X[0] <= 577.341\ngini = 0.375\nsamples = 4\nvalue = [3, 1, 0]"] ;
674 -> 675 ;
676 [label="X[0] <= 577.16\ngini = 0.5\nsamples = 2\nvalue = [1, 1, 0]"] ;
675 -> 676 ;
677 [label="gini = 0.0\nsamples = 1\nvalue = [1, 0, 0]"] ;
676 -> 677 ;
678 [label="gini = 0.0\nsamples = 1\nvalue = [0, 1, 0]"] ;
676 -> 678 ;
679 [label="gini = 0.0\nsamples = 2\nvalue = [2, 0, 0]"] ;
675 -> 679 ;
680 [label="gini = 0.0\nsamples = 1\nvalue = [0, 1, 0]"] ;
674 -> 680 ;
681 [label="gini = 0.0\nsamples = 2\nvalue = [2, 0, 0]"] ;
673 -> 681 ;
682 [label="X[0] <= 580.93\ngini = 0.475\nsamples = 18\nvalue = [5, 12, 1]"] ;
670 -> 682 ;
683 [label="gini = 0.0\nsamples = 4\nvalue = [0, 4, 0]"] ;
682 -> 683 ;
684 [label="X[0] <= 581.316\ngini = 0.541\nsamples = 14\nvalue = [5, 8, 1]"] ;
682 -> 684 ;
685 [label="gini = 0.0\nsamples = 2\nvalue = [2, 0, 0]"] ;
684 -> 685 ;
686 [label="X[0] <= 584.134\ngini = 0.486\nsamples = 12\nvalue = [3, 8, 1]"] ;
684 -> 686 ;
687 [label="X[0] <= 583.788\ngini = 0.42\nsamples = 10\nvalue = [3, 7, 0]"] ;
686 -> 687 ;
688 [label="X[0] <= 582.54\ngini = 0.278\nsamples = 6\nvalue = [1, 5, 0]"] ;
687 -> 688 ;
689 [label="X[0] <= 582.19\ngini = 0.444\nsamples = 3\nvalue = [1, 2, 0]"] ;
688 -> 689 ;
690 [label="gini = 0.0\nsamples = 2\nvalue = [0, 2, 0]"] ;
689 -> 690 ;
691 [label="gini = 0.0\nsamples = 1\nvalue = [1, 0, 0]"] ;
689 -> 691 ;
692 [label="gini = 0.0\nsamples = 3\nvalue = [0, 3, 0]"] ;
688 -> 692 ;
693 [label="X[0] <= 583.851\ngini = 0.5\nsamples = 4\nvalue = [2, 2, 0]"] ;
687 -> 693 ;
694 [label="gini = 0.0\nsamples = 1\nvalue = [1, 0, 0]"] ;
693 -> 694 ;
695 [label="X[0] <= 583.901\ngini = 0.444\nsamples = 3\nvalue = [1, 2, 0]"] ;
693 -> 695 ;
696 [label="gini = 0.0\nsamples = 1\nvalue = [0, 1, 0]"] ;
695 -> 696 ;
697 [label="X[0] <= 583.97\ngini = 0.5\nsamples = 2\nvalue = [1, 1, 0]"] ;
695 -> 697 ;
698 [label="gini = 0.0\nsamples = 1\nvalue = [1, 0, 0]"] ;
697 -> 698 ;
699 [label="gini = 0.0\nsamples = 1\nvalue = [0, 1, 0]"] ;
697 -> 699 ;
700 [label="X[0] <= 584.421\ngini = 0.5\nsamples = 2\nvalue = [0, 1, 1]"] ;
686 -> 700 ;
701 [label="gini = 0.0\nsamples = 1\nvalue = [0, 0, 1]"] ;
700 -> 701 ;
702 [label="gini = 0.0\nsamples = 1\nvalue = [0, 1, 0]"] ;
700 -> 702 ;
703 [label="gini = 0.0\nsamples = 2\nvalue = [2, 0, 0]"] ;
669 -> 703 ;
704 [label="gini = 0.0\nsamples = 4\nvalue = [0, 4, 0]"] ;
668 -> 704 ;
705 [label="X[0] <= 589.427\ngini = 0.494\nsamples = 158\nvalue = [93, 63, 2]"] ;
667 -> 705 ;
706 [label="gini = 0.0\nsamples = 6\nvalue = [6, 0, 0]"] ;
705 -> 706 ;
707 [label="X[0] <= 649.999\ngini = 0.5\nsamples = 152\nvalue = [87, 63, 2]"] ;
705 -> 707 ;
708 [label="X[0] <= 644.466\ngini = 0.509\nsamples = 134\nvalue = [73, 59, 2]"] ;
707 -> 708 ;
709 [label="X[0] <= 641.755\ngini = 0.498\nsamples = 125\nvalue = [71, 53, 1]"] ;
708 -> 709 ;
710 [label="X[0] <= 620.018\ngini = 0.501\nsamples = 121\nvalue = [67, 53, 1]"] ;
709 -> 710 ;
711 [label="X[0] <= 612.148\ngini = 0.514\nsamples = 72\nvalue = [36, 35, 1]"] ;
710 -> 711 ;
712 [label="X[0] <= 611.015\ngini = 0.501\nsamples = 53\nvalue = [31, 21, 1]"] ;
711 -> 712 ;
713 [label="X[0] <= 610.101\ngini = 0.515\nsamples = 46\nvalue = [25, 20, 1]"] ;
712 -> 713 ;
714 [label="X[0] <= 609.419\ngini = 0.509\nsamples = 44\nvalue = [25, 18, 1]"] ;
713 -> 714 ;
715 [label="X[0] <= 606.973\ngini = 0.519\nsamples = 41\nvalue = [22, 18, 1]"] ;
714 -> 715 ;
716 [label="X[0] <= 591.795\ngini = 0.503\nsamples = 37\nvalue = [22, 14, 1]"] ;
715 -> 716 ;
717 [label="X[0] <= 590.285\ngini = 0.486\nsamples = 12\nvalue = [5, 7, 0]"] ;
716 -> 717 ;
718 [label="X[0] <= 589.549\ngini = 0.5\nsamples = 10\nvalue = [5, 5, 0]"] ;
717 -> 718 ;
719 [label="gini = 0.0\nsamples = 1\nvalue = [0, 1, 0]"] ;
718 -> 719 ;
720 [label="X[0] <= 589.677\ngini = 0.494\nsamples = 9\nvalue = [5, 4, 0]"] ;
718 -> 720 ;
721 [label="gini = 0.0\nsamples = 1\nvalue = [1, 0, 0]"] ;
720 -> 721 ;
722 [label="X[0] <= 589.831\ngini = 0.5\nsamples = 8\nvalue = [4, 4, 0]"] ;
720 -> 722 ;
723 [label="gini = 0.0\nsamples = 1\nvalue = [0, 1, 0]"] ;
722 -> 723 ;
724 [label="X[0] <= 590.03\ngini = 0.49\nsamples = 7\nvalue = [4, 3, 0]"] ;
722 -> 724 ;
725 [label="X[0] <= 589.96\ngini = 0.375\nsamples = 4\nvalue = [3, 1, 0]"] ;
724 -> 725 ;
726 [label="gini = 0.0\nsamples = 1\nvalue = [1, 0, 0]"] ;
725 -> 726 ;
727 [label="gini = 0.444\nsamples = 3\nvalue = [2, 1, 0]"] ;
725 -> 727 ;
728 [label="X[0] <= 590.15\ngini = 0.444\nsamples = 3\nvalue = [1, 2, 0]"] ;
724 -> 728 ;
729 [label="gini = 0.0\nsamples = 2\nvalue = [0, 2, 0]"] ;
728 -> 729 ;
730 [label="gini = 0.0\nsamples = 1\nvalue = [1, 0, 0]"] ;
728 -> 730 ;
731 [label="gini = 0.0\nsamples = 2\nvalue = [0, 2, 0]"] ;
717 -> 731 ;
732 [label="X[0] <= 595.285\ngini = 0.458\nsamples = 25\nvalue = [17, 7, 1]"] ;
716 -> 732 ;
733 [label="gini = 0.0\nsamples = 4\nvalue = [4, 0, 0]"] ;
732 -> 733 ;
734 [label="X[0] <= 598.031\ngini = 0.503\nsamples = 21\nvalue = [13, 7, 1]"] ;
732 -> 734 ;
735 [label="X[0] <= 596.307\ngini = 0.49\nsamples = 7\nvalue = [3, 4, 0]"] ;
734 -> 735 ;
736 [label="X[0] <= 595.651\ngini = 0.375\nsamples = 4\nvalue = [3, 1, 0]"] ;
735 -> 736 ;
737 [label="gini = 0.0\nsamples = 1\nvalue = [0, 1, 0]"] ;
736 -> 737 ;
738 [label="gini = 0.0\nsamples = 3\nvalue = [3, 0, 0]"] ;
736 -> 738 ;
739 [label="gini = 0.0\nsamples = 3\nvalue = [0, 3, 0]"] ;
735 -> 739 ;
740 [label="X[0] <= 599.443\ngini = 0.439\nsamples = 14\nvalue = [10, 3, 1]"] ;
734 -> 740 ;
741 [label="X[0] <= 598.966\ngini = 0.5\nsamples = 2\nvalue = [1, 0, 1]"] ;
740 -> 741 ;
742 [label="gini = 0.0\nsamples = 1\nvalue = [1, 0, 0]"] ;
741 -> 742 ;
743 [label="gini = 0.0\nsamples = 1\nvalue = [0, 0, 1]"] ;
741 -> 743 ;
744 [label="X[0] <= 601.35\ngini = 0.375\nsamples = 12\nvalue = [9, 3, 0]"] ;
740 -> 744 ;
745 [label="X[0] <= 599.999\ngini = 0.48\nsamples = 5\nvalue = [3, 2, 0]"] ;
744 -> 745 ;
746 [label="gini = 0.0\nsamples = 2\nvalue = [2, 0, 0]"] ;
745 -> 746 ;
747 [label="X[0] <= 600.5\ngini = 0.444\nsamples = 3\nvalue = [1, 2, 0]"] ;
745 -> 747 ;
748 [label="gini = 0.5\nsamples = 2\nvalue = [1, 1, 0]"] ;
747 -> 748 ;
749 [label="gini = 0.0\nsamples = 1\nvalue = [0, 1, 0]"] ;
747 -> 749 ;
750 [label="X[0] <= 603.785\ngini = 0.245\nsamples = 7\nvalue = [6, 1, 0]"] ;
744 -> 750 ;
751 [label="gini = 0.0\nsamples = 4\nvalue = [4, 0, 0]"] ;
750 -> 751 ;
752 [label="X[0] <= 604.584\ngini = 0.444\nsamples = 3\nvalue = [2, 1, 0]"] ;
750 -> 752 ;
753 [label="gini = 0.0\nsamples = 1\nvalue = [0, 1, 0]"] ;
752 -> 753 ;
754 [label="gini = 0.0\nsamples = 2\nvalue = [2, 0, 0]"] ;
752 -> 754 ;
755 [label="gini = 0.0\nsamples = 4\nvalue = [0, 4, 0]"] ;
715 -> 755 ;
756 [label="gini = 0.0\nsamples = 3\nvalue = [3, 0, 0]"] ;
714 -> 756 ;
757 [label="gini = 0.0\nsamples = 2\nvalue = [0, 2, 0]"] ;
713 -> 757 ;
758 [label="X[0] <= 611.506\ngini = 0.245\nsamples = 7\nvalue = [6, 1, 0]"] ;
712 -> 758 ;
759 [label="gini = 0.0\nsamples = 3\nvalue = [3, 0, 0]"] ;
758 -> 759 ;
760 [label="X[0] <= 611.735\ngini = 0.375\nsamples = 4\nvalue = [3, 1, 0]"] ;
758 -> 760 ;
761 [label="gini = 0.0\nsamples = 1\nvalue = [0, 1, 0]"] ;
760 -> 761 ;
762 [label="gini = 0.0\nsamples = 3\nvalue = [3, 0, 0]"] ;
760 -> 762 ;
763 [label="X[0] <= 615.175\ngini = 0.388\nsamples = 19\nvalue = [5, 14, 0]"] ;
711 -> 763 ;
764 [label="X[0] <= 612.708\ngini = 0.165\nsamples = 11\nvalue = [1, 10, 0]"] ;
763 -> 764 ;
765 [label="X[0] <= 612.435\ngini = 0.32\nsamples = 5\nvalue = [1, 4, 0]"] ;
764 -> 765 ;
766 [label="gini = 0.0\nsamples = 2\nvalue = [0, 2, 0]"] ;
765 -> 766 ;
767 [label="gini = 0.444\nsamples = 3\nvalue = [1, 2, 0]"] ;
765 -> 767 ;
768 [label="gini = 0.0\nsamples = 6\nvalue = [0, 6, 0]"] ;
764 -> 768 ;
769 [label="X[0] <= 616.592\ngini = 0.5\nsamples = 8\nvalue = [4, 4, 0]"] ;
763 -> 769 ;
770 [label="gini = 0.0\nsamples = 2\nvalue = [2, 0, 0]"] ;
769 -> 770 ;
771 [label="X[0] <= 618.774\ngini = 0.444\nsamples = 6\nvalue = [2, 4, 0]"] ;
769 -> 771 ;
772 [label="X[0] <= 617.667\ngini = 0.5\nsamples = 4\nvalue = [2, 2, 0]"] ;
771 -> 772 ;
773 [label="gini = 0.0\nsamples = 1\nvalue = [0, 1, 0]"] ;
772 -> 773 ;
774 [label="X[0] <= 618.25\ngini = 0.444\nsamples = 3\nvalue = [2, 1, 0]"] ;
772 -> 774 ;
775 [label="gini = 0.0\nsamples = 1\nvalue = [1, 0, 0]"] ;
774 -> 775 ;
776 [label="X[0] <= 618.595\ngini = 0.5\nsamples = 2\nvalue = [1, 1, 0]"] ;
774 -> 776 ;
777 [label="gini = 0.0\nsamples = 1\nvalue = [0, 1, 0]"] ;
776 -> 777 ;
778 [label="gini = 0.0\nsamples = 1\nvalue = [1, 0, 0]"] ;
776 -> 778 ;
779 [label="gini = 0.0\nsamples = 2\nvalue = [0, 2, 0]"] ;
771 -> 779 ;
780 [label="X[0] <= 623.75\ngini = 0.465\nsamples = 49\nvalue = [31, 18, 0]"] ;
710 -> 780 ;
781 [label="gini = 0.0\nsamples = 6\nvalue = [6, 0, 0]"] ;
780 -> 781 ;
782 [label="X[0] <= 640.505\ngini = 0.487\nsamples = 43\nvalue = [25, 18, 0]"] ;
780 -> 782 ;
783 [label="X[0] <= 634.59\ngini = 0.47\nsamples = 37\nvalue = [23, 14, 0]"] ;
782 -> 783 ;
784 [label="X[0] <= 631.871\ngini = 0.495\nsamples = 29\nvalue = [16, 13, 0]"] ;
783 -> 784 ;
785 [label="X[0] <= 629.999\ngini = 0.469\nsamples = 24\nvalue = [15, 9, 0]"] ;
784 -> 785 ;
786 [label="X[0] <= 624.27\ngini = 0.498\nsamples = 17\nvalue = [9, 8, 0]"] ;
785 -> 786 ;
787 [label="gini = 0.0\nsamples = 1\nvalue = [0, 1, 0]"] ;
786 -> 787 ;
788 [label="X[0] <= 625.056\ngini = 0.492\nsamples = 16\nvalue = [9, 7, 0]"] ;
786 -> 788 ;
789 [label="gini = 0.0\nsamples = 2\nvalue = [2, 0, 0]"] ;
788 -> 789 ;
790 [label="X[0] <= 627.354\ngini = 0.5\nsamples = 14\nvalue = [7, 7, 0]"] ;
788 -> 790 ;
791 [label="X[0] <= 626.39\ngini = 0.375\nsamples = 4\nvalue = [1, 3, 0]"] ;
790 -> 791 ;
792 [label="X[0] <= 625.502\ngini = 0.5\nsamples = 2\nvalue = [1, 1, 0]"] ;
791 -> 792 ;
793 [label="gini = 0.0\nsamples = 1\nvalue = [0, 1, 0]"] ;
792 -> 793 ;
794 [label="gini = 0.0\nsamples = 1\nvalue = [1, 0, 0]"] ;
792 -> 794 ;
795 [label="gini = 0.0\nsamples = 2\nvalue = [0, 2, 0]"] ;
791 -> 795 ;
796 [label="X[0] <= 628.305\ngini = 0.48\nsamples = 10\nvalue = [6, 4, 0]"] ;
790 -> 796 ;
797 [label="gini = 0.0\nsamples = 3\nvalue = [3, 0, 0]"] ;
796 -> 797 ;
798 [label="X[0] <= 629.037\ngini = 0.49\nsamples = 7\nvalue = [3, 4, 0]"] ;
796 -> 798 ;
799 [label="gini = 0.0\nsamples = 2\nvalue = [0, 2, 0]"] ;
798 -> 799 ;
800 [label="X[0] <= 629.974\ngini = 0.48\nsamples = 5\nvalue = [3, 2, 0]"] ;
798 -> 800 ;
801 [label="X[0] <= 629.634\ngini = 0.375\nsamples = 4\nvalue = [3, 1, 0]"] ;
800 -> 801 ;
802 [label="X[0] <= 629.287\ngini = 0.5\nsamples = 2\nvalue = [1, 1, 0]"] ;
801 -> 802 ;
803 [label="gini = 0.0\nsamples = 1\nvalue = [1, 0, 0]"] ;
802 -> 803 ;
804 [label="gini = 0.0\nsamples = 1\nvalue = [0, 1, 0]"] ;
802 -> 804 ;
805 [label="gini = 0.0\nsamples = 2\nvalue = [2, 0, 0]"] ;
801 -> 805 ;
806 [label="gini = 0.0\nsamples = 1\nvalue = [0, 1, 0]"] ;
800 -> 806 ;
807 [label="X[0] <= 631.572\ngini = 0.245\nsamples = 7\nvalue = [6, 1, 0]"] ;
785 -> 807 ;
808 [label="gini = 0.0\nsamples = 5\nvalue = [5, 0, 0]"] ;
807 -> 808 ;
809 [label="X[0] <= 631.693\ngini = 0.5\nsamples = 2\nvalue = [1, 1, 0]"] ;
807 -> 809 ;
810 [label="gini = 0.0\nsamples = 1\nvalue = [0, 1, 0]"] ;
809 -> 810 ;
811 [label="gini = 0.0\nsamples = 1\nvalue = [1, 0, 0]"] ;
809 -> 811 ;
812 [label="X[0] <= 633.996\ngini = 0.32\nsamples = 5\nvalue = [1, 4, 0]"] ;
784 -> 812 ;
813 [label="gini = 0.0\nsamples = 3\nvalue = [0, 3, 0]"] ;
812 -> 813 ;
814 [label="X[0] <= 634.346\ngini = 0.5\nsamples = 2\nvalue = [1, 1, 0]"] ;
812 -> 814 ;
815 [label="gini = 0.0\nsamples = 1\nvalue = [1, 0, 0]"] ;
814 -> 815 ;
816 [label="gini = 0.0\nsamples = 1\nvalue = [0, 1, 0]"] ;
814 -> 816 ;
817 [label="X[0] <= 639.132\ngini = 0.219\nsamples = 8\nvalue = [7, 1, 0]"] ;
783 -> 817 ;
818 [label="gini = 0.0\nsamples = 6\nvalue = [6, 0, 0]"] ;
817 -> 818 ;
819 [label="X[0] <= 640.048\ngini = 0.5\nsamples = 2\nvalue = [1, 1, 0]"] ;
817 -> 819 ;
820 [label="gini = 0.0\nsamples = 1\nvalue = [0, 1, 0]"] ;
819 -> 820 ;
821 [label="gini = 0.0\nsamples = 1\nvalue = [1, 0, 0]"] ;
819 -> 821 ;
822 [label="X[0] <= 640.983\ngini = 0.444\nsamples = 6\nvalue = [2, 4, 0]"] ;
782 -> 822 ;
823 [label="gini = 0.0\nsamples = 3\nvalue = [0, 3, 0]"] ;
822 -> 823 ;
824 [label="X[0] <= 641.331\ngini = 0.444\nsamples = 3\nvalue = [2, 1, 0]"] ;
822 -> 824 ;
825 [label="gini = 0.0\nsamples = 2\nvalue = [2, 0, 0]"] ;
824 -> 825 ;
826 [label="gini = 0.0\nsamples = 1\nvalue = [0, 1, 0]"] ;
824 -> 826 ;
827 [label="gini = 0.0\nsamples = 4\nvalue = [4, 0, 0]"] ;
709 -> 827 ;
828 [label="X[0] <= 645.473\ngini = 0.494\nsamples = 9\nvalue = [2, 6, 1]"] ;
708 -> 828 ;
829 [label="X[0] <= 644.701\ngini = 0.5\nsamples = 2\nvalue = [0, 1, 1]"] ;
828 -> 829 ;
830 [label="gini = 0.0\nsamples = 1\nvalue = [0, 1, 0]"] ;
829 -> 830 ;
831 [label="gini = 0.0\nsamples = 1\nvalue = [0, 0, 1]"] ;
829 -> 831 ;
832 [label="X[0] <= 647.217\ngini = 0.408\nsamples = 7\nvalue = [2, 5, 0]"] ;
828 -> 832 ;
833 [label="gini = 0.0\nsamples = 2\nvalue = [0, 2, 0]"] ;
832 -> 833 ;
834 [label="X[0] <= 647.512\ngini = 0.48\nsamples = 5\nvalue = [2, 3, 0]"] ;
832 -> 834 ;
835 [label="gini = 0.0\nsamples = 1\nvalue = [1, 0, 0]"] ;
834 -> 835 ;
836 [label="X[0] <= 648.53\ngini = 0.375\nsamples = 4\nvalue = [1, 3, 0]"] ;
834 -> 836 ;
837 [label="gini = 0.0\nsamples = 2\nvalue = [0, 2, 0]"] ;
836 -> 837 ;
838 [label="X[0] <= 649.423\ngini = 0.5\nsamples = 2\nvalue = [1, 1, 0]"] ;
836 -> 838 ;
839 [label="gini = 0.0\nsamples = 1\nvalue = [1, 0, 0]"] ;
838 -> 839 ;
840 [label="gini = 0.0\nsamples = 1\nvalue = [0, 1, 0]"] ;
838 -> 840 ;
841 [label="X[0] <= 652.27\ngini = 0.346\nsamples = 18\nvalue = [14, 4, 0]"] ;
707 -> 841 ;
842 [label="gini = 0.0\nsamples = 6\nvalue = [6, 0, 0]"] ;
841 -> 842 ;
843 [label="X[0] <= 652.585\ngini = 0.444\nsamples = 12\nvalue = [8, 4, 0]"] ;
841 -> 843 ;
844 [label="gini = 0.0\nsamples = 1\nvalue = [0, 1, 0]"] ;
843 -> 844 ;
845 [label="X[0] <= 653.275\ngini = 0.397\nsamples = 11\nvalue = [8, 3, 0]"] ;
843 -> 845 ;
846 [label="gini = 0.0\nsamples = 2\nvalue = [2, 0, 0]"] ;
845 -> 846 ;
847 [label="X[0] <= 653.569\ngini = 0.444\nsamples = 9\nvalue = [6, 3, 0]"] ;
845 -> 847 ;
848 [label="gini = 0.0\nsamples = 1\nvalue = [0, 1, 0]"] ;
847 -> 848 ;
849 [label="X[0] <= 654.368\ngini = 0.375\nsamples = 8\nvalue = [6, 2, 0]"] ;
847 -> 849 ;
850 [label="gini = 0.0\nsamples = 2\nvalue = [2, 0, 0]"] ;
849 -> 850 ;
851 [label="X[0] <= 654.885\ngini = 0.444\nsamples = 6\nvalue = [4, 2, 0]"] ;
849 -> 851 ;
852 [label="gini = 0.0\nsamples = 1\nvalue = [0, 1, 0]"] ;
851 -> 852 ;
853 [label="X[0] <= 655.595\ngini = 0.32\nsamples = 5\nvalue = [4, 1, 0]"] ;
851 -> 853 ;
854 [label="gini = 0.0\nsamples = 2\nvalue = [2, 0, 0]"] ;
853 -> 854 ;
855 [label="X[0] <= 655.934\ngini = 0.444\nsamples = 3\nvalue = [2, 1, 0]"] ;
853 -> 855 ;
856 [label="gini = 0.0\nsamples = 1\nvalue = [0, 1, 0]"] ;
855 -> 856 ;
857 [label="gini = 0.0\nsamples = 2\nvalue = [2, 0, 0]"] ;
855 -> 857 ;
858 [label="X[0] <= 1107.392\ngini = 0.538\nsamples = 234\nvalue = [95, 127, 12]"] ;
4 -> 858 ;
859 [label="X[0] <= 664.41\ngini = 0.518\nsamples = 214\nvalue = [83, 123, 8]"] ;
858 -> 859 ;
860 [label="gini = 0.0\nsamples = 9\nvalue = [0, 9, 0]"] ;
859 -> 860 ;
861 [label="X[0] <= 1057.234\ngini = 0.525\nsamples = 205\nvalue = [83, 114, 8]"] ;
859 -> 861 ;
862 [label="X[0] <= 670.046\ngini = 0.529\nsamples = 200\nvalue = [83, 109, 8]"] ;
861 -> 862 ;
863 [label="X[0] <= 665.523\ngini = 0.463\nsamples = 11\nvalue = [7, 4, 0]"] ;
862 -> 863 ;
864 [label="X[0] <= 665.075\ngini = 0.375\nsamples = 4\nvalue = [1, 3, 0]"] ;
863 -> 864 ;
865 [label="gini = 0.0\nsamples = 1\nvalue = [1, 0, 0]"] ;
864 -> 865 ;
866 [label="gini = 0.0\nsamples = 3\nvalue = [0, 3, 0]"] ;
864 -> 866 ;
867 [label="X[0] <= 666.847\ngini = 0.245\nsamples = 7\nvalue = [6, 1, 0]"] ;
863 -> 867 ;
868 [label="gini = 0.0\nsamples = 3\nvalue = [3, 0, 0]"] ;
867 -> 868 ;
869 [label="X[0] <= 667.267\ngini = 0.375\nsamples = 4\nvalue = [3, 1, 0]"] ;
867 -> 869 ;
870 [label="gini = 0.0\nsamples = 1\nvalue = [0, 1, 0]"] ;
869 -> 870 ;
871 [label="gini = 0.0\nsamples = 3\nvalue = [3, 0, 0]"] ;
869 -> 871 ;
872 [label="X[0] <= 682.132\ngini = 0.528\nsamples = 189\nvalue = [76, 105, 8]"] ;
862 -> 872 ;
873 [label="X[0] <= 676.159\ngini = 0.477\nsamples = 16\nvalue = [3, 11, 2]"] ;
872 -> 873 ;
874 [label="X[0] <= 674.835\ngini = 0.595\nsamples = 11\nvalue = [3, 6, 2]"] ;
873 -> 874 ;
875 [label="X[0] <= 670.735\ngini = 0.54\nsamples = 10\nvalue = [3, 6, 1]"] ;
874 -> 875 ;
876 [label="X[0] <= 670.276\ngini = 0.5\nsamples = 2\nvalue = [0, 1, 1]"] ;
875 -> 876 ;
877 [label="gini = 0.0\nsamples = 1\nvalue = [0, 1, 0]"] ;
876 -> 877 ;
878 [label="gini = 0.0\nsamples = 1\nvalue = [0, 0, 1]"] ;
876 -> 878 ;
879 [label="X[0] <= 671.466\ngini = 0.469\nsamples = 8\nvalue = [3, 5, 0]"] ;
875 -> 879 ;
880 [label="gini = 0.0\nsamples = 1\nvalue = [1, 0, 0]"] ;
879 -> 880 ;
881 [label="X[0] <= 672.505\ngini = 0.408\nsamples = 7\nvalue = [2, 5, 0]"] ;
879 -> 881 ;
882 [label="gini = 0.0\nsamples = 3\nvalue = [0, 3, 0]"] ;
881 -> 882 ;
883 [label="X[0] <= 673.211\ngini = 0.5\nsamples = 4\nvalue = [2, 2, 0]"] ;
881 -> 883 ;
884 [label="gini = 0.0\nsamples = 1\nvalue = [1, 0, 0]"] ;
883 -> 884 ;
885 [label="X[0] <= 673.815\ngini = 0.444\nsamples = 3\nvalue = [1, 2, 0]"] ;
883 -> 885 ;
886 [label="gini = 0.0\nsamples = 1\nvalue = [0, 1, 0]"] ;
885 -> 886 ;
887 [label="X[0] <= 674.3\ngini = 0.5\nsamples = 2\nvalue = [1, 1, 0]"] ;
885 -> 887 ;
888 [label="gini = 0.0\nsamples = 1\nvalue = [1, 0, 0]"] ;
887 -> 888 ;
889 [label="gini = 0.0\nsamples = 1\nvalue = [0, 1, 0]"] ;
887 -> 889 ;
890 [label="gini = 0.0\nsamples = 1\nvalue = [0, 0, 1]"] ;
874 -> 890 ;
891 [label="gini = 0.0\nsamples = 5\nvalue = [0, 5, 0]"] ;
873 -> 891 ;
892 [label="X[0] <= 703.035\ngini = 0.526\nsamples = 173\nvalue = [73, 94, 6]"] ;
872 -> 892 ;
893 [label="X[0] <= 697.395\ngini = 0.463\nsamples = 11\nvalue = [7, 4, 0]"] ;
892 -> 893 ;
894 [label="X[0] <= 685.223\ngini = 0.5\nsamples = 8\nvalue = [4, 4, 0]"] ;
893 -> 894 ;
895 [label="gini = 0.0\nsamples = 1\nvalue = [1, 0, 0]"] ;
894 -> 895 ;
896 [label="X[0] <= 691.288\ngini = 0.49\nsamples = 7\nvalue = [3, 4, 0]"] ;
894 -> 896 ;
897 [label="X[0] <= 688.418\ngini = 0.375\nsamples = 4\nvalue = [1, 3, 0]"] ;
896 -> 897 ;
898 [label="X[0] <= 686.809\ngini = 0.5\nsamples = 2\nvalue = [1, 1, 0]"] ;
897 -> 898 ;
899 [label="gini = 0.0\nsamples = 1\nvalue = [0, 1, 0]"] ;
898 -> 899 ;
900 [label="gini = 0.0\nsamples = 1\nvalue = [1, 0, 0]"] ;
898 -> 900 ;
901 [label="gini = 0.0\nsamples = 2\nvalue = [0, 2, 0]"] ;
897 -> 901 ;
902 [label="X[0] <= 694.451\ngini = 0.444\nsamples = 3\nvalue = [2, 1, 0]"] ;
896 -> 902 ;
903 [label="gini = 0.0\nsamples = 2\nvalue = [2, 0, 0]"] ;
902 -> 903 ;
904 [label="gini = 0.0\nsamples = 1\nvalue = [0, 1, 0]"] ;
902 -> 904 ;
905 [label="gini = 0.0\nsamples = 3\nvalue = [3, 0, 0]"] ;
893 -> 905 ;
906 [label="X[0] <= 726.143\ngini = 0.524\nsamples = 162\nvalue = [66, 90, 6]"] ;
892 -> 906 ;
907 [label="X[0] <= 713.726\ngini = 0.375\nsamples = 16\nvalue = [4, 12, 0]"] ;
906 -> 907 ;
908 [label="X[0] <= 713.096\ngini = 0.444\nsamples = 12\nvalue = [4, 8, 0]"] ;
907 -> 908 ;
909 [label="X[0] <= 705.217\ngini = 0.397\nsamples = 11\nvalue = [3, 8, 0]"] ;
908 -> 909 ;
910 [label="X[0] <= 704.046\ngini = 0.5\nsamples = 4\nvalue = [2, 2, 0]"] ;
909 -> 910 ;
911 [label="gini = 0.0\nsamples = 2\nvalue = [0, 2, 0]"] ;
910 -> 911 ;
912 [label="gini = 0.0\nsamples = 2\nvalue = [2, 0, 0]"] ;
910 -> 912 ;
913 [label="X[0] <= 711.141\ngini = 0.245\nsamples = 7\nvalue = [1, 6, 0]"] ;
909 -> 913 ;
914 [label="gini = 0.0\nsamples = 5\nvalue = [0, 5, 0]"] ;
913 -> 914 ;
915 [label="X[0] <= 712.051\ngini = 0.5\nsamples = 2\nvalue = [1, 1, 0]"] ;
913 -> 915 ;
916 [label="gini = 0.0\nsamples = 1\nvalue = [1, 0, 0]"] ;
915 -> 916 ;
917 [label="gini = 0.0\nsamples = 1\nvalue = [0, 1, 0]"] ;
915 -> 917 ;
918 [label="gini = 0.0\nsamples = 1\nvalue = [1, 0, 0]"] ;
908 -> 918 ;
919 [label="gini = 0.0\nsamples = 4\nvalue = [0, 4, 0]"] ;
907 -> 919 ;
920 [label="X[0] <= 733.651\ngini = 0.533\nsamples = 146\nvalue = [62, 78, 6]"] ;
906 -> 920 ;
921 [label="gini = 0.0\nsamples = 5\nvalue = [5, 0, 0]"] ;
920 -> 921 ;
922 [label="X[0] <= 738.544\ngini = 0.529\nsamples = 141\nvalue = [57, 78, 6]"] ;
920 -> 922 ;
923 [label="gini = 0.0\nsamples = 3\nvalue = [0, 3, 0]"] ;
922 -> 923 ;
924 [label="X[0] <= 741.167\ngini = 0.532\nsamples = 138\nvalue = [57, 75, 6]"] ;
922 -> 924 ;
925 [label="gini = 0.0\nsamples = 2\nvalue = [2, 0, 0]"] ;
924 -> 925 ;
926 [label="X[0] <= 742.484\ngini = 0.53\nsamples = 136\nvalue = [55, 75, 6]"] ;
924 -> 926 ;
927 [label="gini = 0.0\nsamples = 3\nvalue = [0, 3, 0]"] ;
926 -> 927 ;
928 [label="X[0] <= 752.155\ngini = 0.534\nsamples = 133\nvalue = [55, 72, 6]"] ;
926 -> 928 ;
929 [label="X[0] <= 750.125\ngini = 0.444\nsamples = 6\nvalue = [4, 2, 0]"] ;
928 -> 929 ;
930 [label="X[0] <= 744.78\ngini = 0.444\nsamples = 3\nvalue = [1, 2, 0]"] ;
929 -> 930 ;
931 [label="gini = 0.0\nsamples = 1\nvalue = [1, 0, 0]"] ;
930 -> 931 ;
932 [label="gini = 0.0\nsamples = 2\nvalue = [0, 2, 0]"] ;
930 -> 932 ;
933 [label="gini = 0.0\nsamples = 3\nvalue = [3, 0, 0]"] ;
929 -> 933 ;
934 [label="X[0] <= 765.794\ngini = 0.533\nsamples = 127\nvalue = [51, 70, 6]"] ;
928 -> 934 ;
935 [label="gini = 0.0\nsamples = 6\nvalue = [0, 6, 0]"] ;
934 -> 935 ;
936 [label="X[0] <= 767.746\ngini = 0.54\nsamples = 121\nvalue = [51, 64, 6]"] ;
934 -> 936 ;
937 [label="X[0] <= 766.278\ngini = 0.5\nsamples = 2\nvalue = [1, 0, 1]"] ;
936 -> 937 ;
938 [label="gini = 0.0\nsamples = 1\nvalue = [1, 0, 0]"] ;
937 -> 938 ;
939 [label="gini = 0.0\nsamples = 1\nvalue = [0, 0, 1]"] ;
937 -> 939 ;
940 [label="X[0] <= 770.163\ngini = 0.532\nsamples = 119\nvalue = [50, 64, 5]"] ;
936 -> 940 ;
941 [label="gini = 0.0\nsamples = 2\nvalue = [0, 2, 0]"] ;
940 -> 941 ;
942 [label="X[0] <= 824.845\ngini = 0.535\nsamples = 117\nvalue = [50, 62, 5]"] ;
940 -> 942 ;
943 [label="X[0] <= 820.535\ngini = 0.496\nsamples = 33\nvalue = [18, 15, 0]"] ;
942 -> 943 ;
944 [label="X[0] <= 815.427\ngini = 0.5\nsamples = 30\nvalue = [15, 15, 0]"] ;
943 -> 944 ;
945 [label="X[0] <= 809.99\ngini = 0.494\nsamples = 27\nvalue = [15, 12, 0]"] ;
944 -> 945 ;
946 [label="X[0] <= 772.413\ngini = 0.5\nsamples = 24\nvalue = [12, 12, 0]"] ;
945 -> 946 ;
947 [label="gini = 0.0\nsamples = 1\nvalue = [1, 0, 0]"] ;
946 -> 947 ;
948 [label="X[0] <= 774.397\ngini = 0.499\nsamples = 23\nvalue = [11, 12, 0]"] ;
946 -> 948 ;
949 [label="gini = 0.0\nsamples = 2\nvalue = [0, 2, 0]"] ;
948 -> 949 ;
950 [label="X[0] <= 808.99\ngini = 0.499\nsamples = 21\nvalue = [11, 10, 0]"] ;
948 -> 950 ;
951 [label="X[0] <= 801.299\ngini = 0.495\nsamples = 20\nvalue = [11, 9, 0]"] ;
950 -> 951 ;
952 [label="X[0] <= 791.528\ngini = 0.497\nsamples = 13\nvalue = [6, 7, 0]"] ;
951 -> 952 ;
953 [label="X[0] <= 775.313\ngini = 0.48\nsamples = 10\nvalue = [6, 4, 0]"] ;
952 -> 953 ;
954 [label="gini = 0.0\nsamples = 1\nvalue = [1, 0, 0]"] ;
953 -> 954 ;
955 [label="X[0] <= 776.491\ngini = 0.494\nsamples = 9\nvalue = [5, 4, 0]"] ;
953 -> 955 ;
956 [label="gini = 0.0\nsamples = 1\nvalue = [0, 1, 0]"] ;
955 -> 956 ;
957 [label="X[0] <= 778.113\ngini = 0.469\nsamples = 8\nvalue = [5, 3, 0]"] ;
955 -> 957 ;
958 [label="gini = 0.0\nsamples = 2\nvalue = [2, 0, 0]"] ;
957 -> 958 ;
959 [label="X[0] <= 779.25\ngini = 0.5\nsamples = 6\nvalue = [3, 3, 0]"] ;
957 -> 959 ;
960 [label="gini = 0.0\nsamples = 2\nvalue = [0, 2, 0]"] ;
959 -> 960 ;
961 [label="X[0] <= 784.205\ngini = 0.375\nsamples = 4\nvalue = [3, 1, 0]"] ;
959 -> 961 ;
962 [label="gini = 0.0\nsamples = 2\nvalue = [2, 0, 0]"] ;
961 -> 962 ;
963 [label="X[0] <= 788.39\ngini = 0.5\nsamples = 2\nvalue = [1, 1, 0]"] ;
961 -> 963 ;
964 [label="gini = 0.0\nsamples = 1\nvalue = [0, 1, 0]"] ;
963 -> 964 ;
965 [label="gini = 0.0\nsamples = 1\nvalue = [1, 0, 0]"] ;
963 -> 965 ;
966 [label="gini = 0.0\nsamples = 3\nvalue = [0, 3, 0]"] ;
952 -> 966 ;
967 [label="X[0] <= 802.476\ngini = 0.408\nsamples = 7\nvalue = [5, 2, 0]"] ;
951 -> 967 ;
968 [label="gini = 0.0\nsamples = 2\nvalue = [2, 0, 0]"] ;
967 -> 968 ;
969 [label="X[0] <= 802.76\ngini = 0.48\nsamples = 5\nvalue = [3, 2, 0]"] ;
967 -> 969 ;
970 [label="gini = 0.0\nsamples = 1\nvalue = [0, 1, 0]"] ;
969 -> 970 ;
971 [label="X[0] <= 807.651\ngini = 0.375\nsamples = 4\nvalue = [3, 1, 0]"] ;
969 -> 971 ;
972 [label="gini = 0.0\nsamples = 2\nvalue = [2, 0, 0]"] ;
971 -> 972 ;
973 [label="gini = 0.5\nsamples = 2\nvalue = [1, 1, 0]"] ;
971 -> 973 ;
974 [label="gini = 0.0\nsamples = 1\nvalue = [0, 1, 0]"] ;
950 -> 974 ;
975 [label="gini = 0.0\nsamples = 3\nvalue = [3, 0, 0]"] ;
945 -> 975 ;
976 [label="gini = 0.0\nsamples = 3\nvalue = [0, 3, 0]"] ;
944 -> 976 ;
977 [label="gini = 0.0\nsamples = 3\nvalue = [3, 0, 0]"] ;
943 -> 977 ;
978 [label="X[0] <= 828.995\ngini = 0.538\nsamples = 84\nvalue = [32, 47, 5]"] ;
942 -> 978 ;
979 [label="gini = 0.0\nsamples = 4\nvalue = [0, 4, 0]"] ;
978 -> 979 ;
980 [label="X[0] <= 829.5\ngini = 0.547\nsamples = 80\nvalue = [32, 43, 5]"] ;
978 -> 980 ;
981 [label="gini = 0.0\nsamples = 1\nvalue = [1, 0, 0]"] ;
980 -> 981 ;
982 [label="X[0] <= 830.944\ngini = 0.546\nsamples = 79\nvalue = [31, 43, 5]"] ;
980 -> 982 ;
983 [label="gini = 0.0\nsamples = 2\nvalue = [0, 2, 0]"] ;
982 -> 983 ;
984 [label="X[0] <= 896.654\ngini = 0.55\nsamples = 77\nvalue = [31, 41, 5]"] ;
982 -> 984 ;
985 [label="X[0] <= 867.37\ngini = 0.492\nsamples = 16\nvalue = [9, 7, 0]"] ;
984 -> 985 ;
986 [label="X[0] <= 850.161\ngini = 0.463\nsamples = 11\nvalue = [4, 7, 0]"] ;
985 -> 986 ;
987 [label="X[0] <= 832.5\ngini = 0.5\nsamples = 8\nvalue = [4, 4, 0]"] ;
986 -> 987 ;
988 [label="gini = 0.0\nsamples = 1\nvalue = [1, 0, 0]"] ;
987 -> 988 ;
989 [label="X[0] <= 834.817\ngini = 0.49\nsamples = 7\nvalue = [3, 4, 0]"] ;
987 -> 989 ;
990 [label="gini = 0.0\nsamples = 2\nvalue = [0, 2, 0]"] ;
989 -> 990 ;
991 [label="X[0] <= 837.495\ngini = 0.48\nsamples = 5\nvalue = [3, 2, 0]"] ;
989 -> 991 ;
992 [label="gini = 0.0\nsamples = 1\nvalue = [1, 0, 0]"] ;
991 -> 992 ;
993 [label="X[0] <= 839.995\ngini = 0.5\nsamples = 4\nvalue = [2, 2, 0]"] ;
991 -> 993 ;
994 [label="gini = 0.0\nsamples = 1\nvalue = [0, 1, 0]"] ;
993 -> 994 ;
995 [label="X[0] <= 841.974\ngini = 0.444\nsamples = 3\nvalue = [2, 1, 0]"] ;
993 -> 995 ;
996 [label="gini = 0.0\nsamples = 1\nvalue = [1, 0, 0]"] ;
995 -> 996 ;
997 [label="X[0] <= 845.635\ngini = 0.5\nsamples = 2\nvalue = [1, 1, 0]"] ;
995 -> 997 ;
998 [label="gini = 0.0\nsamples = 1\nvalue = [0, 1, 0]"] ;
997 -> 998 ;
999 [label="gini = 0.0\nsamples = 1\nvalue = [1, 0, 0]"] ;
997 -> 999 ;
1000 [label="gini = 0.0\nsamples = 3\nvalue = [0, 3, 0]"] ;
986 -> 1000 ;
1001 [label="gini = 0.0\nsamples = 5\nvalue = [5, 0, 0]"] ;
985 -> 1001 ;
1002 [label="X[0] <= 915.895\ngini = 0.553\nsamples = 61\nvalue = [22, 34, 5]"] ;
984 -> 1002 ;
1003 [label="X[0] <= 909.635\ngini = 0.403\nsamples = 12\nvalue = [2, 9, 1]"] ;
1002 -> 1003 ;
1004 [label="X[0] <= 904.836\ngini = 0.531\nsamples = 8\nvalue = [2, 5, 1]"] ;
1003 -> 1004 ;
1005 [label="X[0] <= 899.196\ngini = 0.278\nsamples = 6\nvalue = [1, 5, 0]"] ;
1004 -> 1005 ;
1006 [label="X[0] <= 897.66\ngini = 0.444\nsamples = 3\nvalue = [1, 2, 0]"] ;
1005 -> 1006 ;
1007 [label="gini = 0.0\nsamples = 2\nvalue = [0, 2, 0]"] ;
1006 -> 1007 ;
1008 [label="gini = 0.0\nsamples = 1\nvalue = [1, 0, 0]"] ;
1006 -> 1008 ;
1009 [label="gini = 0.0\nsamples = 3\nvalue = [0, 3, 0]"] ;
1005 -> 1009 ;
1010 [label="X[0] <= 907.166\ngini = 0.5\nsamples = 2\nvalue = [1, 0, 1]"] ;
1004 -> 1010 ;
1011 [label="gini = 0.0\nsamples = 1\nvalue = [1, 0, 0]"] ;
1010 -> 1011 ;
1012 [label="gini = 0.0\nsamples = 1\nvalue = [0, 0, 1]"] ;
1010 -> 1012 ;
1013 [label="gini = 0.0\nsamples = 4\nvalue = [0, 4, 0]"] ;
1003 -> 1013 ;
1014 [label="X[0] <= 917.96\ngini = 0.566\nsamples = 49\nvalue = [20, 25, 4]"] ;
1002 -> 1014 ;
1015 [label="gini = 0.0\nsamples = 2\nvalue = [2, 0, 0]"] ;
1014 -> 1015 ;
1016 [label="X[0] <= 919.415\ngini = 0.563\nsamples = 47\nvalue = [18, 25, 4]"] ;
1014 -> 1016 ;
1017 [label="gini = 0.0\nsamples = 1\nvalue = [0, 0, 1]"] ;
1016 -> 1017 ;
1018 [label="X[0] <= 1054.901\ngini = 0.547\nsamples = 46\nvalue = [18, 25, 3]"] ;
1016 -> 1018 ;
1019 [label="X[0] <= 1007.83\ngini = 0.544\nsamples = 45\nvalue = [17, 25, 3]"] ;
1018 -> 1019 ;
1020 [label="X[0] <= 1005.925\ngini = 0.575\nsamples = 23\nvalue = [10, 11, 2]"] ;
1019 -> 1020 ;
1021 [label="X[0] <= 1000.265\ngini = 0.541\nsamples = 22\nvalue = [10, 11, 1]"] ;
1020 -> 1021 ;
1022 [label="X[0] <= 925.284\ngini = 0.535\nsamples = 20\nvalue = [8, 11, 1]"] ;
1021 -> 1022 ;
1023 [label="X[0] <= 921.634\ngini = 0.48\nsamples = 5\nvalue = [3, 2, 0]"] ;
1022 -> 1023 ;
1024 [label="X[0] <= 920.69\ngini = 0.444\nsamples = 3\nvalue = [1, 2, 0]"] ;
1023 -> 1024 ;
1025 [label="gini = 0.0\nsamples = 1\nvalue = [0, 1, 0]"] ;
1024 -> 1025 ;
1026 [label="X[0] <= 921.1\ngini = 0.5\nsamples = 2\nvalue = [1, 1, 0]"] ;
1024 -> 1026 ;
1027 [label="gini = 0.0\nsamples = 1\nvalue = [1, 0, 0]"] ;
1026 -> 1027 ;
1028 [label="gini = 0.0\nsamples = 1\nvalue = [0, 1, 0]"] ;
1026 -> 1028 ;
1029 [label="gini = 0.0\nsamples = 2\nvalue = [2, 0, 0]"] ;
1023 -> 1029 ;
1030 [label="X[0] <= 943.967\ngini = 0.524\nsamples = 15\nvalue = [5, 9, 1]"] ;
1022 -> 1030 ;
1031 [label="gini = 0.0\nsamples = 2\nvalue = [0, 2, 0]"] ;
1030 -> 1031 ;
1032 [label="X[0] <= 951.135\ngini = 0.556\nsamples = 13\nvalue = [5, 7, 1]"] ;
1030 -> 1032 ;
1033 [label="gini = 0.0\nsamples = 1\nvalue = [1, 0, 0]"] ;
1032 -> 1033 ;
1034 [label="X[0] <= 959.695\ngini = 0.542\nsamples = 12\nvalue = [4, 7, 1]"] ;
1032 -> 1034 ;
1035 [label="gini = 0.0\nsamples = 2\nvalue = [0, 2, 0]"] ;
1034 -> 1035 ;
1036 [label="X[0] <= 968.458\ngini = 0.58\nsamples = 10\nvalue = [4, 5, 1]"] ;
1034 -> 1036 ;
1037 [label="X[0] <= 964.413\ngini = 0.5\nsamples = 2\nvalue = [1, 0, 1]"] ;
1036 -> 1037 ;
1038 [label="gini = 0.0\nsamples = 1\nvalue = [1, 0, 0]"] ;
1037 -> 1038 ;
1039 [label="gini = 0.0\nsamples = 1\nvalue = [0, 0, 1]"] ;
1037 -> 1039 ;
1040 [label="X[0] <= 971.535\ngini = 0.469\nsamples = 8\nvalue = [3, 5, 0]"] ;
1036 -> 1040 ;
1041 [label="gini = 0.0\nsamples = 1\nvalue = [0, 1, 0]"] ;
1040 -> 1041 ;
1042 [label="X[0] <= 977.095\ngini = 0.49\nsamples = 7\nvalue = [3, 4, 0]"] ;
1040 -> 1042 ;
1043 [label="gini = 0.0\nsamples = 1\nvalue = [1, 0, 0]"] ;
1042 -> 1043 ;
1044 [label="X[0] <= 983.651\ngini = 0.444\nsamples = 6\nvalue = [2, 4, 0]"] ;
1042 -> 1044 ;
1045 [label="gini = 0.0\nsamples = 1\nvalue = [0, 1, 0]"] ;
1044 -> 1045 ;
1046 [label="X[0] <= 988.111\ngini = 0.48\nsamples = 5\nvalue = [2, 3, 0]"] ;
1044 -> 1046 ;
1047 [label="gini = 0.0\nsamples = 1\nvalue = [1, 0, 0]"] ;
1046 -> 1047 ;
1048 [label="X[0] <= 998.926\ngini = 0.375\nsamples = 4\nvalue = [1, 3, 0]"] ;
1046 -> 1048 ;
1049 [label="gini = 0.0\nsamples = 2\nvalue = [0, 2, 0]"] ;
1048 -> 1049 ;
1050 [label="X[0] <= 999.263\ngini = 0.5\nsamples = 2\nvalue = [1, 1, 0]"] ;
1048 -> 1050 ;
1051 [label="gini = 0.0\nsamples = 1\nvalue = [1, 0, 0]"] ;
1050 -> 1051 ;
1052 [label="gini = 0.0\nsamples = 1\nvalue = [0, 1, 0]"] ;
1050 -> 1052 ;
1053 [label="gini = 0.0\nsamples = 2\nvalue = [2, 0, 0]"] ;
1021 -> 1053 ;
1054 [label="gini = 0.0\nsamples = 1\nvalue = [0, 0, 1]"] ;
1020 -> 1054 ;
1055 [label="X[0] <= 1022.499\ngini = 0.492\nsamples = 22\nvalue = [7, 14, 1]"] ;
1019 -> 1055 ;
1056 [label="X[0] <= 1015.2\ngini = 0.245\nsamples = 7\nvalue = [1, 6, 0]"] ;
1055 -> 1056 ;
1057 [label="gini = 0.0\nsamples = 3\nvalue = [0, 3, 0]"] ;
1056 -> 1057 ;
1058 [label="X[0] <= 1015.82\ngini = 0.375\nsamples = 4\nvalue = [1, 3, 0]"] ;
1056 -> 1058 ;
1059 [label="gini = 0.0\nsamples = 1\nvalue = [1, 0, 0]"] ;
1058 -> 1059 ;
1060 [label="gini = 0.0\nsamples = 3\nvalue = [0, 3, 0]"] ;
1058 -> 1060 ;
1061 [label="X[0] <= 1026.726\ngini = 0.551\nsamples = 15\nvalue = [6, 8, 1]"] ;
1055 -> 1061 ;
1062 [label="gini = 0.0\nsamples = 1\nvalue = [1, 0, 0]"] ;
1061 -> 1062 ;
1063 [label="X[0] <= 1030.005\ngini = 0.541\nsamples = 14\nvalue = [5, 8, 1]"] ;
1061 -> 1063 ;
1064 [label="gini = 0.0\nsamples = 2\nvalue = [0, 2, 0]"] ;
1063 -> 1064 ;
1065 [label="X[0] <= 1031.307\ngini = 0.569\nsamples = 12\nvalue = [5, 6, 1]"] ;
1063 -> 1065 ;
1066 [label="gini = 0.0\nsamples = 2\nvalue = [2, 0, 0]"] ;
1065 -> 1066 ;
1067 [label="X[0] <= 1039.635\ngini = 0.54\nsamples = 10\nvalue = [3, 6, 1]"] ;
1065 -> 1067 ;
1068 [label="gini = 0.0\nsamples = 3\nvalue = [0, 3, 0]"] ;
1067 -> 1068 ;
1069 [label="X[0] <= 1042.721\ngini = 0.612\nsamples = 7\nvalue = [3, 3, 1]"] ;
1067 -> 1069 ;
1070 [label="X[0] <= 1039.981\ngini = 0.444\nsamples = 3\nvalue = [2, 0, 1]"] ;
1069 -> 1070 ;
1071 [label="gini = 0.0\nsamples = 1\nvalue = [0, 0, 1]"] ;
1070 -> 1071 ;
1072 [label="gini = 0.0\nsamples = 2\nvalue = [2, 0, 0]"] ;
1070 -> 1072 ;
1073 [label="X[0] <= 1052.748\ngini = 0.375\nsamples = 4\nvalue = [1, 3, 0]"] ;
1069 -> 1073 ;
1074 [label="gini = 0.0\nsamples = 2\nvalue = [0, 2, 0]"] ;
1073 -> 1074 ;
1075 [label="X[0] <= 1053.855\ngini = 0.5\nsamples = 2\nvalue = [1, 1, 0]"] ;
1073 -> 1075 ;
1076 [label="gini = 0.0\nsamples = 1\nvalue = [1, 0, 0]"] ;
1075 -> 1076 ;
1077 [label="gini = 0.0\nsamples = 1\nvalue = [0, 1, 0]"] ;
1075 -> 1077 ;
1078 [label="gini = 0.0\nsamples = 1\nvalue = [1, 0, 0]"] ;
1018 -> 1078 ;
1079 [label="gini = 0.0\nsamples = 5\nvalue = [0, 5, 0]"] ;
861 -> 1079 ;
1080 [label="X[0] <= 1181.496\ngini = 0.56\nsamples = 20\nvalue = [12, 4, 4]"] ;
858 -> 1080 ;
1081 [label="X[0] <= 1180.762\ngini = 0.593\nsamples = 18\nvalue = [10, 4, 4]"] ;
1080 -> 1081 ;
1082 [label="X[0] <= 1174.697\ngini = 0.567\nsamples = 17\nvalue = [10, 3, 4]"] ;
1081 -> 1082 ;
1083 [label="X[0] <= 1135.714\ngini = 0.544\nsamples = 13\nvalue = [8, 3, 2]"] ;
1082 -> 1083 ;
1084 [label="X[0] <= 1123.932\ngini = 0.64\nsamples = 5\nvalue = [2, 1, 2]"] ;
1083 -> 1084 ;
1085 [label="X[0] <= 1108.776\ngini = 0.444\nsamples = 3\nvalue = [2, 0, 1]"] ;
1084 -> 1085 ;
1086 [label="gini = 0.0\nsamples = 1\nvalue = [1, 0, 0]"] ;
1085 -> 1086 ;
1087 [label="X[0] <= 1116.041\ngini = 0.5\nsamples = 2\nvalue = [1, 0, 1]"] ;
1085 -> 1087 ;
1088 [label="gini = 0.0\nsamples = 1\nvalue = [0, 0, 1]"] ;
1087 -> 1088 ;
1089 [label="gini = 0.0\nsamples = 1\nvalue = [1, 0, 0]"] ;
1087 -> 1089 ;
1090 [label="X[0] <= 1129.495\ngini = 0.5\nsamples = 2\nvalue = [0, 1, 1]"] ;
1084 -> 1090 ;
1091 [label="gini = 0.0\nsamples = 1\nvalue = [0, 1, 0]"] ;
1090 -> 1091 ;
1092 [label="gini = 0.0\nsamples = 1\nvalue = [0, 0, 1]"] ;
1090 -> 1092 ;
1093 [label="X[0] <= 1148.711\ngini = 0.375\nsamples = 8\nvalue = [6, 2, 0]"] ;
1083 -> 1093 ;
1094 [label="gini = 0.0\nsamples = 4\nvalue = [4, 0, 0]"] ;
1093 -> 1094 ;
1095 [label="X[0] <= 1157.534\ngini = 0.5\nsamples = 4\nvalue = [2, 2, 0]"] ;
1093 -> 1095 ;
1096 [label="gini = 0.0\nsamples = 1\nvalue = [0, 1, 0]"] ;
1095 -> 1096 ;
1097 [label="X[0] <= 1166.05\ngini = 0.444\nsamples = 3\nvalue = [2, 1, 0]"] ;
1095 -> 1097 ;
1098 [label="gini = 0.0\nsamples = 1\nvalue = [1, 0, 0]"] ;
1097 -> 1098 ;
1099 [label="X[0] <= 1170.787\ngini = 0.5\nsamples = 2\nvalue = [1, 1, 0]"] ;
1097 -> 1099 ;
1100 [label="gini = 0.0\nsamples = 1\nvalue = [0, 1, 0]"] ;
1099 -> 1100 ;
1101 [label="gini = 0.0\nsamples = 1\nvalue = [1, 0, 0]"] ;
1099 -> 1101 ;
1102 [label="X[0] <= 1175.359\ngini = 0.5\nsamples = 4\nvalue = [2, 0, 2]"] ;
1082 -> 1102 ;
1103 [label="gini = 0.0\nsamples = 1\nvalue = [0, 0, 1]"] ;
1102 -> 1103 ;
1104 [label="X[0] <= 1176.84\ngini = 0.444\nsamples = 3\nvalue = [2, 0, 1]"] ;
1102 -> 1104 ;
1105 [label="gini = 0.0\nsamples = 1\nvalue = [1, 0, 0]"] ;
1104 -> 1105 ;
1106 [label="X[0] <= 1179.156\ngini = 0.5\nsamples = 2\nvalue = [1, 0, 1]"] ;
1104 -> 1106 ;
1107 [label="gini = 0.0\nsamples = 1\nvalue = [0, 0, 1]"] ;
1106 -> 1107 ;
1108 [label="gini = 0.0\nsamples = 1\nvalue = [1, 0, 0]"] ;
1106 -> 1108 ;
1109 [label="gini = 0.0\nsamples = 1\nvalue = [0, 1, 0]"] ;
1081 -> 1109 ;
1110 [label="gini = 0.0\nsamples = 2\nvalue = [2, 0, 0]"] ;
1080 -> 1110 ;
1111 [label="X[0] <= 1238.635\ngini = 0.386\nsamples = 34\nvalue = [5, 26, 3]"] ;
3 -> 1111 ;
1112 [label="X[0] <= 1232.223\ngini = 0.519\nsamples = 17\nvalue = [3, 11, 3]"] ;
1111 -> 1112 ;
1113 [label="X[0] <= 1223.849\ngini = 0.418\nsamples = 15\nvalue = [1, 11, 3]"] ;
1112 -> 1113 ;
1114 [label="X[0] <= 1215.953\ngini = 0.292\nsamples = 12\nvalue = [1, 10, 1]"] ;
1113 -> 1114 ;
1115 [label="X[0] <= 1191.785\ngini = 0.18\nsamples = 10\nvalue = [0, 9, 1]"] ;
1114 -> 1115 ;
1116 [label="X[0] <= 1189.87\ngini = 0.444\nsamples = 3\nvalue = [0, 2, 1]"] ;
1115 -> 1116 ;
1117 [label="gini = 0.0\nsamples = 2\nvalue = [0, 2, 0]"] ;
1116 -> 1117 ;
1118 [label="gini = 0.0\nsamples = 1\nvalue = [0, 0, 1]"] ;
1116 -> 1118 ;
1119 [label="gini = 0.0\nsamples = 7\nvalue = [0, 7, 0]"] ;
1115 -> 1119 ;
1120 [label="X[0] <= 1221.057\ngini = 0.5\nsamples = 2\nvalue = [1, 1, 0]"] ;
1114 -> 1120 ;
1121 [label="gini = 0.0\nsamples = 1\nvalue = [1, 0, 0]"] ;
1120 -> 1121 ;
1122 [label="gini = 0.0\nsamples = 1\nvalue = [0, 1, 0]"] ;
1120 -> 1122 ;
1123 [label="X[0] <= 1229.35\ngini = 0.444\nsamples = 3\nvalue = [0, 1, 2]"] ;
1113 -> 1123 ;
1124 [label="gini = 0.0\nsamples = 2\nvalue = [0, 0, 2]"] ;
1123 -> 1124 ;
1125 [label="gini = 0.0\nsamples = 1\nvalue = [0, 1, 0]"] ;
1123 -> 1125 ;
1126 [label="gini = 0.0\nsamples = 2\nvalue = [2, 0, 0]"] ;
1112 -> 1126 ;
1127 [label="X[0] <= 1259.315\ngini = 0.208\nsamples = 17\nvalue = [2, 15, 0]"] ;
1111 -> 1127 ;
1128 [label="gini = 0.0\nsamples = 7\nvalue = [0, 7, 0]"] ;
1127 -> 1128 ;
1129 [label="X[0] <= 1266.32\ngini = 0.32\nsamples = 10\nvalue = [2, 8, 0]"] ;
1127 -> 1129 ;
1130 [label="gini = 0.0\nsamples = 1\nvalue = [1, 0, 0]"] ;
1129 -> 1130 ;
1131 [label="X[0] <= 1306.72\ngini = 0.198\nsamples = 9\nvalue = [1, 8, 0]"] ;
1129 -> 1131 ;
1132 [label="gini = 0.0\nsamples = 5\nvalue = [0, 5, 0]"] ;
1131 -> 1132 ;
1133 [label="X[0] <= 1329.207\ngini = 0.375\nsamples = 4\nvalue = [1, 3, 0]"] ;
1131 -> 1133 ;
1134 [label="gini = 0.0\nsamples = 1\nvalue = [1, 0, 0]"] ;
1133 -> 1134 ;
1135 [label="gini = 0.0\nsamples = 3\nvalue = [0, 3, 0]"] ;
1133 -> 1135 ;
1136 [label="X[0] <= 8170.25\ngini = 0.566\nsamples = 523\nvalue = [243, 39, 241]"] ;
0 -> 1136 [labeldistance=2.5, labelangle=-45, headlabel="False"] ;
1137 [label="X[0] <= 8016.85\ngini = 0.579\nsamples = 367\nvalue = [175, 34, 158]"] ;
1136 -> 1137 ;
1138 [label="X[0] <= 1902.026\ngini = 0.581\nsamples = 358\nvalue = [166, 34, 158]"] ;
1137 -> 1138 ;
1139 [label="X[0] <= 1760.875\ngini = 0.549\nsamples = 18\nvalue = [4, 3, 11]"] ;
1138 -> 1139 ;
1140 [label="X[0] <= 1479.832\ngini = 0.628\nsamples = 11\nvalue = [4, 2, 5]"] ;
1139 -> 1140 ;
1141 [label="gini = 0.0\nsamples = 2\nvalue = [0, 0, 2]"] ;
1140 -> 1141 ;
1142 [label="X[0] <= 1601.974\ngini = 0.642\nsamples = 9\nvalue = [4, 2, 3]"] ;
1140 -> 1142 ;
1143 [label="X[0] <= 1524.945\ngini = 0.64\nsamples = 5\nvalue = [2, 2, 1]"] ;
1142 -> 1143 ;
1144 [label="X[0] <= 1509.381\ngini = 0.444\nsamples = 3\nvalue = [2, 0, 1]"] ;
1143 -> 1144 ;
1145 [label="gini = 0.0\nsamples = 1\nvalue = [1, 0, 0]"] ;
1144 -> 1145 ;
1146 [label="X[0] <= 1514.036\ngini = 0.5\nsamples = 2\nvalue = [1, 0, 1]"] ;
1144 -> 1146 ;
1147 [label="gini = 0.0\nsamples = 1\nvalue = [0, 0, 1]"] ;
1146 -> 1147 ;
1148 [label="gini = 0.0\nsamples = 1\nvalue = [1, 0, 0]"] ;
1146 -> 1148 ;
1149 [label="gini = 0.0\nsamples = 2\nvalue = [0, 2, 0]"] ;
1143 -> 1149 ;
1150 [label="X[0] <= 1683.357\ngini = 0.5\nsamples = 4\nvalue = [2, 0, 2]"] ;
1142 -> 1150 ;
1151 [label="gini = 0.0\nsamples = 1\nvalue = [0, 0, 1]"] ;
1150 -> 1151 ;
1152 [label="X[0] <= 1709.969\ngini = 0.444\nsamples = 3\nvalue = [2, 0, 1]"] ;
1150 -> 1152 ;
1153 [label="gini = 0.0\nsamples = 1\nvalue = [1, 0, 0]"] ;
1152 -> 1153 ;
1154 [label="X[0] <= 1730.75\ngini = 0.5\nsamples = 2\nvalue = [1, 0, 1]"] ;
1152 -> 1154 ;
1155 [label="gini = 0.0\nsamples = 1\nvalue = [0, 0, 1]"] ;
1154 -> 1155 ;
1156 [label="gini = 0.0\nsamples = 1\nvalue = [1, 0, 0]"] ;
1154 -> 1156 ;
1157 [label="X[0] <= 1787.36\ngini = 0.245\nsamples = 7\nvalue = [0, 1, 6]"] ;
1139 -> 1157 ;
1158 [label="gini = 0.0\nsamples = 3\nvalue = [0, 0, 3]"] ;
1157 -> 1158 ;
1159 [label="X[0] <= 1808.94\ngini = 0.375\nsamples = 4\nvalue = [0, 1, 3]"] ;
1157 -> 1159 ;
1160 [label="gini = 0.0\nsamples = 1\nvalue = [0, 1, 0]"] ;
1159 -> 1160 ;
1161 [label="gini = 0.0\nsamples = 3\nvalue = [0, 0, 3]"] ;
1159 -> 1161 ;
1162 [label="X[0] <= 2532.354\ngini = 0.578\nsamples = 340\nvalue = [162, 31, 147]"] ;
1138 -> 1162 ;
1163 [label="X[0] <= 2418.48\ngini = 0.492\nsamples = 39\nvalue = [24, 1, 14]"] ;
1162 -> 1163 ;
1164 [label="X[0] <= 2023.171\ngini = 0.497\nsamples = 26\nvalue = [14, 0, 12]"] ;
1163 -> 1164 ;
1165 [label="X[0] <= 1965.896\ngini = 0.32\nsamples = 5\nvalue = [4, 0, 1]"] ;
1164 -> 1165 ;
1166 [label="X[0] <= 1933.422\ngini = 0.5\nsamples = 2\nvalue = [1, 0, 1]"] ;
1165 -> 1166 ;
1167 [label="gini = 0.0\nsamples = 1\nvalue = [1, 0, 0]"] ;
1166 -> 1167 ;
1168 [label="gini = 0.0\nsamples = 1\nvalue = [0, 0, 1]"] ;
1166 -> 1168 ;
1169 [label="gini = 0.0\nsamples = 3\nvalue = [3, 0, 0]"] ;
1165 -> 1169 ;
1170 [label="X[0] <= 2143.679\ngini = 0.499\nsamples = 21\nvalue = [10, 0, 11]"] ;
1164 -> 1170 ;
1171 [label="gini = 0.0\nsamples = 3\nvalue = [0, 0, 3]"] ;
1170 -> 1171 ;
1172 [label="X[0] <= 2216.589\ngini = 0.494\nsamples = 18\nvalue = [10, 0, 8]"] ;
1170 -> 1172 ;
1173 [label="gini = 0.0\nsamples = 3\nvalue = [3, 0, 0]"] ;
1172 -> 1173 ;
1174 [label="X[0] <= 2244.487\ngini = 0.498\nsamples = 15\nvalue = [7, 0, 8]"] ;
1172 -> 1174 ;
1175 [label="gini = 0.0\nsamples = 2\nvalue = [0, 0, 2]"] ;
1174 -> 1175 ;
1176 [label="X[0] <= 2259.3\ngini = 0.497\nsamples = 13\nvalue = [7, 0, 6]"] ;
1174 -> 1176 ;
1177 [label="gini = 0.0\nsamples = 2\nvalue = [2, 0, 0]"] ;
1176 -> 1177 ;
1178 [label="X[0] <= 2296.75\ngini = 0.496\nsamples = 11\nvalue = [5, 0, 6]"] ;
1176 -> 1178 ;
1179 [label="gini = 0.0\nsamples = 2\nvalue = [0, 0, 2]"] ;
1178 -> 1179 ;
1180 [label="X[0] <= 2406.307\ngini = 0.494\nsamples = 9\nvalue = [5, 0, 4]"] ;
1178 -> 1180 ;
1181 [label="X[0] <= 2306.5\ngini = 0.469\nsamples = 8\nvalue = [5, 0, 3]"] ;
1180 -> 1181 ;
1182 [label="gini = 0.0\nsamples = 1\nvalue = [1, 0, 0]"] ;
1181 -> 1182 ;
1183 [label="X[0] <= 2323.559\ngini = 0.49\nsamples = 7\nvalue = [4, 0, 3]"] ;
1181 -> 1183 ;
1184 [label="gini = 0.0\nsamples = 1\nvalue = [0, 0, 1]"] ;
1183 -> 1184 ;
1185 [label="X[0] <= 2356.243\ngini = 0.444\nsamples = 6\nvalue = [4, 0, 2]"] ;
1183 -> 1185 ;
1186 [label="gini = 0.0\nsamples = 2\nvalue = [2, 0, 0]"] ;
1185 -> 1186 ;
1187 [label="X[0] <= 2383.422\ngini = 0.5\nsamples = 4\nvalue = [2, 0, 2]"] ;
1185 -> 1187 ;
